<Nnet3> 
input-node name=input dim=40
component-node name=fully_connected1.affine component=fully_connected1.affine input=Append(Offset(input, -20), Offset(input, -19), Offset(input, -18), Offset(input, -17), Offset(input, -16), Offset(input, -15), Offset(input, -14), Offset(input, -13), Offset(input, -12), Offset(input, -11), Offset(input, -10), Offset(input, -9), Offset(input, -8), Offset(input, -7), Offset(input, -6), Offset(input, -5), Offset(input, -4), Offset(input, -3), Offset(input, -2), Offset(input, -1), input, Offset(input, 1), Offset(input, 2), Offset(input, 3), Offset(input, 4), Offset(input, 5), Offset(input, 6), Offset(input, 7), Offset(input, 8), Offset(input, 9), Offset(input, 10), Offset(input, 11), Offset(input, 12), Offset(input, 13), Offset(input, 14), Offset(input, 15), Offset(input, 16), Offset(input, 17), Offset(input, 18), Offset(input, 19), Offset(input, 20))
component-node name=fully_connected1.sigmoid component=fully_connected1.sigmoid input=fully_connected1.affine
component-node name=fully_connected2.affine component=fully_connected2.affine input=fully_connected1.sigmoid
component-node name=fully_connected2.sigmoid component=fully_connected2.sigmoid input=fully_connected2.affine
component-node name=fully_connected3.affine component=fully_connected3.affine input=fully_connected2.sigmoid
component-node name=fully_connected3.sigmoid component=fully_connected3.sigmoid input=fully_connected3.affine
component-node name=fully_connected4.affine component=fully_connected4.affine input=fully_connected3.sigmoid
component-node name=fully_connected4.sigmoid component=fully_connected4.sigmoid input=fully_connected4.affine
component-node name=output.affine component=output.affine input=fully_connected4.sigmoid
component-node name=output.log-softmax component=output.log-softmax input=output.affine
output-node name=output input=output.log-softmax objective=linear

<NumComponents> 10 
<ComponentName> fully_connected1.affine <NaturalGradientAffineComponent> <MaxChange> 0.75 <LearningRate> 0.00025 <LinearParams>  [
  0.02718276 -0.002140644 0.08124706 0.000491064 -0.2508734 -0.1038584 -0.08380728 0.2799586 0.2701342 0.07578745 0.2149442 0.1992763 0.2054242 0.3607662 0.1143823 0.1900843 0.132261 0.266044 0.3259217 0.4059965 0.2675092 0.2170854 -2.485218e-06 0.2474607 -0.1465323 -0.3154356 -0.3249352 -0.375394 -0.2926939 -0.2811656 -0.06778086 -0.1192126 -0.08408576 -0.2403083 0.1432438 0.120855 -0.1134529 -0.1850026 -0.1068044 -0.3839323 0.008143521 -0.03804943 0.1040765 0.04336635 -0.06822538 0.03037831 -0.01279009 0.1397931 0.1147504 0.001756415 -0.002902996 0.06952034 -0.1008456 0.1072911 -0.05968255 0.01553162 0.0002194827 0.05470105 0.1977905 0.2557802 0.1647799 0.2198282 -0.06386904 0.2211665 -0.1364382 -0.283197 -0.2623228 -0.2177012 -0.1960231 -0.2537695 0.09812626 -0.03375459 -0.08594001 -0.1896324 0.1850919 0.1929983 0.01074557 -0.04210863 -0.1130176 -0.27505 0.06634883 -0.1446746 0.05756708 0.00129955 -0.04126851 -0.008624304 0.004134949 0.1409806 0.1174567 -0.03462772 0.08725612 0.01681499 -0.07496171 0.123618 -0.0598157 -0.0970152 0.01588436 -0.03660466 0.1171904 0.2213839 0.1479279 0.1049438 -0.06823391 0.2227606 -0.2213762 -0.159793 -0.2497388 -0.1594009 -0.123132 -0.1921503 0.09124491 0.009688311 -0.1288047 -0.1434959 0.2193473 0.2095602 0.02265236 -0.05868317 -0.07439891 -0.1962502 0.1831062 -0.1211032 0.05244577 -0.02447422 -0.02774179 -0.0624649 0.03588604 0.09159093 0.1044165 -0.007363105 0.07630287 -0.01716974 -0.1328381 0.005420343 -0.1082054 -0.05994929 0.02478989 -0.04896406 0.2091429 0.1938772 0.1811215 0.09534145 -0.06542512 0.124087 -0.1848132 0.0433193 -0.1372836 -0.1433182 -0.1206993 -0.2616265 0.1680797 0.04157842 -0.1483374 -0.04213875 0.2192204 0.2486266 0.01624847 -0.0871309 -0.134509 -0.2335819 0.09259488 -0.04450906 0.08091129 -0.01923683 -0.03693656 -0.004392529 0.005918214 0.06080773 0.07930882 0.1057487 0.1241606 -0.01503908 -0.1237984 0.0483955 0.00398442 -0.0650432 0.1350148 -0.02195693 0.1955408 0.2364005 0.07417873 0.08777919 -0.05801134 0.08253934 -0.1282634 0.03893889 -0.04113 -0.1115529 -0.1720685 -0.206835 0.2209377 0.116424 -0.09030724 -0.07628221 0.2099603 0.1650878 -0.02918817 -0.163455 -0.1161914 -0.1315952 0.1015238 -0.05914947 0.1638502 0.03962681 -0.001623501 0.07944608 -0.05010495 0.06256203 0.07690696 -0.02447199 0.1440647 -0.1284535 -0.1263065 0.05151531 -0.03504369 -0.04362849 0.07054442 -0.0499091 0.09940859 0.0815734 -0.007412797 0.0716229 -0.0447485 0.07206328 -0.187282 0.00408101 -0.02101074 -0.09729242 -0.09720284 -0.1586091 0.1904531 0.1661744 -0.0825813 -0.02829398 0.1380405 0.1202862 -0.04591713 -0.1261066 -0.2090114 -0.009851632 0.02550471 -0.1540604 0.1174905 0.04665439 0.03231643 0.006139491 -0.03542654 0.01471297 -0.009793334 0.00207165 0.1103342 -0.114322 -0.07023768 -0.008689867 0.04068358 -0.107786 0.07503855 -0.008031158 -0.0003170223 -0.05040936 -0.06614382 0.007120759 -0.04300587 0.1265007 -0.119686 -0.04017305 -0.05913527 -0.07276265 0.05076654 -0.05901523 0.08578405 0.1399807 0.004114774 -0.003002041 0.156488 0.07000526 -0.01890243 -0.1539935 -0.07895238 0.03219296 0.08835423 -0.1642195 0.06757844 0.1127078 0.0683029 -0.009151096 0.07190599 -0.02048652 0.03944809 -0.001839121 0.06818672 -0.1326671 -0.07201608 0.03572388 0.05532282 -0.1695664 0.01072557 -0.07140607 -0.09798065 -0.2183823 -0.09853666 -0.07694408 -0.07408477 0.09505089 0.00196481 -0.007937561 0.0493077 0.001729565 0.2476211 0.01484047 0.1403248 0.2320318 0.06028383 0.02934735 0.1172997 -0.01283446 -0.07864343 -0.2551629 -0.1151147 -0.02077634 0.1493608 -0.1228224 0.01291852 0.2084931 0.1478493 -0.05512621 0.01603653 0.06969098 0.128741 0.04901661 0.03382376 -0.1398212 -0.06487425 0.01536636 -0.07696997 -0.1036068 -0.02748995 -0.09509697 -0.1963637 -0.2725339 -0.2015353 -0.2596194 -0.2171467 0.01713147 -0.01043755 0.002158497 0.0155374 0.001184079 0.333705 0.1103804 0.1710657 0.185458 0.1062959 0.03054276 0.02786989 -0.09638836 -0.1117577 -0.2522867 -0.08422434 0.04647987 0.0430991 -0.1440832 0.1605223 0.174751 0.1051056 -0.07944937 -0.04218116 0.07087979 0.1090606 0.002880885 0.0337023 -0.1116988 0.01821986 0.03360775 -0.1300297 -0.08664762 -0.1805576 -0.2329884 -0.2284675 -0.3565508 -0.2428339 -0.2715246 -0.2133741 -0.04834862 0.0100965 0.02576813 0.09028882 0.1727561 0.3183898 0.07018154 0.1646259 0.1971072 0.1288489 -0.0252912 -0.01623939 -0.1500383 -0.09439152 -0.238214 -0.01873108 0.05227834 0.06994939 -0.09563246 0.2272666 0.3279647 0.188638 0.03810827 -0.003460128 -0.05969363 0.1030144 -0.07059219 -0.01201736 -0.1451096 -0.01619985 -0.04437034 -0.1567815 -0.1479927 -0.2194999 -0.2844335 -0.4199912 -0.3342839 -0.3022002 -0.2570567 -0.1813345 -0.06903645 0.04882901 0.0939442 0.08457453 0.2584796 0.294679 0.1448517 0.1388305 0.2057852 0.1731592 -0.03714532 0.04147064 -0.1938066 -0.1056877 -0.3195252 0.02519417 0.03291951 0.001118612 -0.1221205 0.2486319 0.4448159 0.221706 0.08099487 0.05095562 0.07569367 0.128805 -0.1129814 -0.02535173 -0.1030529 -0.05384685 -0.1038476 -0.1156864 -0.1703006 -0.2702812 -0.3469498 -0.4585016 -0.2690981 -0.2131188 -0.265319 -0.1771166 -0.01893103 0.0209504 -0.01609408 0.1015643 0.2752866 0.3332149 0.06293932 0.160745 0.108579 0.196647 -0.01330095 -0.03600748 -0.2040624 -0.1590191 -0.2968674 0.003986466 0.06660221 0.04932605 -0.1238203 0.08642941 0.2206069 0.225003 0.08843523 -0.06392162 0.02279562 0.1423672 -0.123585 -0.0308933 -0.1485966 -0.1881385 -0.178692 -0.1965516 -0.2581995 -0.3428988 -0.4125843 -0.4117634 -0.1142055 -0.1678278 -0.05111317 0.0253557 0.1073041 0.0474974 -0.08617908 0.008648995 0.2225751 0.3225102 0.05572041 0.1307482 0.08241502 0.1326165 0.007084829 -0.03188592 -0.1796537 -0.1580417 -0.2570428 -0.009649492 0.03722508 0.06056838 -0.1330614 0.1284132 0.06966264 0.1640096 0.135519 -0.09360342 -0.01607421 0.1085089 -0.08462746 0.04069595 -0.1343998 -0.2534935 -0.3032823 -0.2358163 -0.3198365 -0.3079003 -0.346825 -0.3171397 -0.04217817 -0.1503867 0.2191543 0.1633623 0.06232543 0.06878797 -0.03622432 0.08193374 0.171367 0.2909706 0.01496014 0.1200577 0.01677576 0.05969376 0.01061907 -0.03384995 -0.1213272 -0.1445237 -0.2350189 -0.01537519 -0.01914935 0.07865717 -0.1808845 0.1477101 0.04116657 0.08707833 0.1095913 0.06287346 0.03610921 -0.000145202 -0.1253588 0.1483152 -0.04713785 -0.3305112 -0.372375 -0.243659 -0.3587072 -0.270027 -0.2703601 -0.1972176 0.1083913 -0.06356976 0.2697486 0.2848174 0.108112 0.02893751 -0.03283513 0.06171482 0.2952753 0.2244342 0.01431249 0.05961005 0.07675075 0.08025383 -0.04534236 -0.006351591 -0.124576 -0.1175451 -0.1076742 -0.04621127 -0.008678703 0.1334119 -0.1343707 0.2105554 0.06157404 0.08631349 0.1483757 0.1844606 0.03137841 -0.03718545 -0.1310252 0.1195997 -0.04106539 -0.3674148 -0.4405885 -0.2701033 -0.3966797 -0.1341889 -0.1814947 -0.1484991 0.2147325 0.05056052 0.361895 0.3233154 0.1198098 0.05970631 -0.001623747 0.05085998 0.2803073 0.1602567 -0.04752558 -0.02382098 -0.04812558 -0.06805423 0.003294229 -0.002976428 -0.1665847 -0.07747243 -0.06964931 0.0306742 -0.02511718 0.0932204 -0.0844862 0.1838334 0.06598628 0.03263859 0.1388741 0.2429303 0.03855763 -0.01430637 -0.2072963 0.2029472 0.07148857 -0.3638437 -0.4274763 -0.2881696 -0.3262819 -0.1033374 -0.1211911 -0.04606897 0.2553845 0.169192 0.3664046 0.369666 0.139067 0.04558487 -0.07240511 0.01126573 0.2532686 0.1476565 -0.07107513 -0.02081888 -0.04180567 -0.1036649 -0.0100329 0.1244102 -0.1117907 -0.03030084 0.06424088 -0.07450299 -0.08445828 0.1205998 -0.06823563 0.3392536 0.1588593 -0.04400764 0.02293167 0.2241316 0.1597014 0.01411341 -0.2332219 0.192411 0.1030741 -0.1581682 -0.3886722 -0.4690723 -0.3100218 -0.0400342 -0.1794159 -0.02579806 0.2922778 0.2156188 0.3589401 0.3622505 0.003815825 -0.06386781 -0.02687908 -0.05702499 0.1123352 0.2165387 0.08421224 0.0009251358 -0.1024856 -0.09744123 -0.01631025 0.1075634 -0.1010712 0.03174515 0.1390005 -0.1016802 -0.1674221 0.1430055 -0.07745056 0.3141908 0.06653959 -0.1121916 0.0559924 0.1995136 0.1271305 -0.02705237 -0.1533455 0.07040095 0.003153056 -0.148099 -0.3493925 -0.4401575 -0.2634867 -0.08949639 -0.1476369 -0.0217157 0.1871646 0.1033179 0.3539194 0.4480005 0.08700592 -0.01698339 -0.01246549 -0.07353289 -0.02174887 0.09738962 0.03993722 -0.08812179 -0.0498946 -0.1480578 0.02206354 0.03694722 -0.1474245 0.03925606 0.1249596 -0.1260133 -0.2316629 0.134771 -0.1061302 0.3199394 0.1044619 -0.1486753 0.09705751 0.1349475 -0.1073069 -0.223688 -0.04869356 0.1246574 -0.05538373 -0.03381056 -0.2340114 -0.3484204 -0.2668485 -0.08284127 -0.1089794 -0.1155853 0.01691343 -0.08900092 0.2677022 0.4022815 0.1329795 -0.01950957 0.04150101 -0.0393518 -0.07302187 0.06649306 0.05090465 -0.05852173 -0.07961641 -0.09963814 0.01746469 0.07787129 -0.1355253 0.004306551 0.1683541 -0.037363 -0.2691303 0.02027772 -0.08838216 0.2789032 0.1192118 -0.0973127 0.19767 0.2292842 -0.1487952 -0.1209729 -0.02881477 0.05902451 0.004364482 0.05549923 -0.02458992 -0.2069183 -0.191431 -0.08801936 -0.1148492 -0.1078974 -0.09035593 -0.03155825 0.2191037 0.2713829 0.03058989 0.06845005 0.07221766 -0.07721337 -0.05930452 0.08684787 0.1389295 -0.07103251 -0.05296014 -0.102208 0.0005317536 0.09126642 -0.166035 0.0416281 0.1802654 -0.001770106 -0.2483675 0.08379103 -0.03148488 0.2352741 0.03556885 -0.003767012 0.3501348 0.3441984 -0.04597275 -0.02440812 -0.03119867 -0.04205995 0.07674599 0.07179217 0.005043491 -0.1229225 -0.09693484 -0.01482149 -0.1466017 -0.1237935 -0.02614233 -0.05758546 -0.02527208 0.2709204 -0.06148895 0.05542185 -0.01969027 0.08127413 -0.06290939 0.1387411 0.1489379 0.04770187 -0.06196178 -0.07406771 0.06793661 0.07186864 -0.1544373 -0.07950752 0.149472 -0.03262774 -0.2220803 0.07886609 -0.08969688 0.07499255 0.02009187 0.02855186 0.4566942 0.4360171 0.009540898 -0.002967674 0.08181475 -0.003492921 0.1399819 0.1764924 -0.05215205 -0.1433237 0.03729622 -0.07200782 -0.04705962 -0.104827 -0.003577147 -0.03319339 -0.04414984 0.2371822 0.007466318 0.1257874 -0.004750747 0.1129935 -0.2287482 0.1230214 0.1117022 0.04068814 -0.1068891 -0.0699838 -0.01345451 0.06045113 -0.226004 -0.06129542 0.1452382 0.005183137 -0.134325 0.09709726 -0.01565584 0.02613854 -0.03979653 0.04859209 0.4217016 0.4059059 -0.07061292 0.04611617 -0.02979862 -0.2054314 0.1289327 0.1250762 -0.2048223 -0.1615596 -0.1027643 -0.1072396 -0.07323392 -0.1425659 -0.04628772 -0.04858247 -0.0857688 0.1128708 0.003435459 0.1335331 0.03593416 0.1101513 -0.09015599 0.01411548 0.07491934 0.0005951836 -0.0614709 0.03661306 -0.02101519 -0.01536902 -0.2424254 -0.04755492 0.1808488 0.06146042 -0.03989869 0.1036049 0.08299354 0.03500297 -0.01120364 -0.007689895 0.3607283 0.3794628 0.04414581 0.09216282 0.01625336 -0.1028467 0.1229573 0.09339008 -0.1394033 -0.1065569 -0.0777584 -0.1148169 -0.1288454 -0.1379172 -0.1071397 -0.09985014 -0.06099446 0.06904888 0.02071072 0.1488554 0.03756836 0.0979955 -0.1159244 0.009972936 0.09573102 0.02893036 -0.05596745 0.07520571 0.06551118 0.03028666 -0.1352112 -0.01877291 0.234405 0.09449171 0.04995228 -0.007048777 0.05849214 -0.04339971 0.01059604 0.05751465 0.2061271 0.3047845 0.06002012 0.07710244 0.009928958 -0.02797974 0.1241813 -0.07824086 -0.1957522 -0.08388745 -0.01930968 -0.1558778 -0.09045005 -0.1485892 -0.05581223 -0.03251458 0.02074255 0.0407648 0.03404313 0.05925085 -0.003035159 0.05316983 -0.1003734 -0.05178246 0.05575355 -0.01128347 0.05092269 0.1832176 0.02828007 0.02427972 -0.1014055 0.02885313 0.1488164 0.05616503 -0.02056517 0.08783427 0.06848048 -0.015403 0.0304417 0.01748471 0.2892818 0.225383 0.02665352 0.03562603 0.1349023 0.02406183 0.05071558 -0.07758892 -0.1847115 -0.09147476 0.0031804 -0.1810605 -0.139445 -0.09093712 0.04078675 -0.04564358 0.01503966 0.009735265 -0.004205112 -0.02819998 -0.0459668 0.02606435 -0.01469439 0.05616469 0.03468879 0.05385522 0.06865547 0.1349921 0.1372066 0.09304697 0.009749192 0.005770585 0.1494209 0.08732928 0.01186299 0.05650223 0.05858022 -0.1251754 0.02873964 0.06553832 0.2768615 0.2220142 0.1192554 -0.01752649 0.07990129 0.08263155 0.006804752 -0.1247862 -0.09325095 -0.08231042 -0.1786122 -0.1635467 -0.1167312 -0.01665851 0.02910532 -0.104222 -0.04493981 -0.05750287 -0.1342138 -0.09121867 -0.03564794 0.07755661 -0.151198 0.0209744 0.06818505 0.1316867 0.07682394 0.1303941 0.1668845 0.118045 -0.03018501 0.03924675 0.06579816 0.07942864 -0.03744597 -0.04644249 -0.0009447174 -0.2146038 0.04728479 0.06341347 0.1486929 0.2262461 0.1544442 -0.02464526 0.1681741 0.1201992 -0.07667378 -0.1712342 -0.1025469 -0.1074039 -0.1919875 -0.1327047 -0.1379865 -0.01515759 -0.02276816 -0.1083394 -0.1108364 -0.09326291 -0.1234052 -0.1037987 -0.1117481 -0.06641045 -0.2001782 0.01658451 0.04802174 0.1307176 -0.02318759 -0.01969295 0.1565788 -0.004009522 -0.05083894 0.002700484 0.06497896 0.0331596 -0.1221111 -0.01326943 0.01176499 -0.08819853 0.08968604 0.1174258 0.1416523 0.2425036 0.2535939 -0.09515303 0.09277894 0.1774975 -0.05025638 -0.1088666 -0.07163534 -0.09977195 -0.1524094 0.01316912 0.02517552 -0.1157035 0.0028609 -0.1153449 -0.1029234 -0.1153679 -0.07220572 -0.1273109 -0.1018621 -0.05201465 -0.1951541 0.09336279 0.009594078 0.08317278 0.004764848 -0.001587451 0.1524251 -0.009780349 -0.1076829 0.005382296 0.06980339 0.09474468 -0.1741397 -0.07212582 -0.02832824 -0.09375678 0.1353533 0.02076671 0.1287038 0.215721 0.2311394 -0.1179807 0.06228187 0.1884958 -0.1134586 -0.01981746 -0.01022828 -0.1604711 -0.1466512 -0.02047545 0.123267 -0.04278533 -0.01093493 -0.1373459 -0.1486248 -0.08591972 0.0356074 -0.16806 -0.06583785 -0.07801946 -0.1678633 0.1351488 0.08876219 0.1690693 -0.05403303 -0.02943008 0.1005069 -0.08196942 -0.07657988 0.0001106456 0.03934848 -0.02530665 -0.2175597 -0.03104582 -0.01748667 0.04112516 0.1132596 0.06369969 0.08646543 0.09523685 0.210673 -0.1010845 0.04661313 0.1301386 -0.1714597 -0.02297667 0.07335333 -0.08011751 -0.1212449 0.04339367 0.1822203 -0.01935835 -0.06391366 -0.17356 -0.08703358 -0.2259174 0.03946138 -0.1536739 0.07082622 -0.01801461 -0.181101 0.1786151 0.2738098 0.18757 -0.09097928 -0.03975912 0.08702471 -0.1010998 0.02812717 0.05795141 0.08429628 0.005640367 -0.1340058 -0.0840375 -0.01366906 0.01483392 0.05303687 -0.02358012 0.05702029 0.09416341 0.1351686 -0.1848635 0.01127871 0.05800072 -0.1069344 -0.02860289 0.003876158 -0.1607238 -0.1830084 0.08359996 0.1853454 0.03570583 -0.09336605 -0.2075908 -0.1260101 -0.221468 0.1055744 -0.05587215 0.1749468 -0.005863895 -0.1275248 0.1602288 0.2992016 0.1737686 -0.1041916 -0.01957804 -0.0172556 -0.08438065 -0.02031111 0.1124698 0.07821772 -0.08853293 -0.1143232 -0.1247369 0.01091919 -0.04557365 0.1672751 0.08256681 0.1498677 0.03487114 0.07974467 -0.1017696 0.04543872 0.0187565 -0.1113812 0.03936297 -0.0934958 -0.2341561 -0.181956 0.02813696 0.07235491 0.05248237 -0.1174458 -0.1095699 -0.01829717 -0.158571 0.1666592 -0.07968552 0.125607 -0.1042965 -0.2096583 0.1365183 0.1979658 0.1005316 -0.1506759 -0.09581219 -0.05619478 -0.09896952 -0.03117741 0.1250848 0.1304314 -0.0227298 -0.1341273 -0.1750432 -0.1706882 0.03741213 0.1838836 -0.02523463 -0.02659076 0.008745192 0.1242257 -0.1670607 0.02268199 -0.05893619 -0.1231026 0.05562043 -0.1104909 -0.281436 -0.1731105 0.08539847 0.1281178 0.002388921 -0.02626279 -0.06319156 0.1200249 0.04311416 0.2077159 -0.003698978 0.1079572 -0.1112627 -0.1646872 0.08178492 0.140732 0.04426963 -0.1060084 -0.03961218 -0.1558158 -0.1470912 -0.01246069 0.1750536 0.04760069 -0.09010062 -0.1401647 -0.0647188 -0.0811533 -0.002933046 0.2152092 0.06470434 0.05663364 0.02210289 0.06193454 -0.0492954 -0.07056018 -0.01809328 0.003512355 0.03154374 -0.1528659 -0.3140466 -0.1107535 0.1171906 0.02760876 -0.0392683 -0.01104122 -0.003315209 0.1549255 0.05816315 0.1858614 0.01537494 0.06902353 0.03474105 -0.1980129 0.02974243 0.08770338 0.01071438 -0.006660531 0.004606396 -0.05114817 -0.134432 0.0536336 0.1530454 0.03600398 -0.05760709 -0.08720555 -0.05606408 -0.1073164 -0.1045269 0.04324134 0.07700097 -0.04336942 -0.03933383 0.04945118 -0.02707418 -0.07327884 -0.04150783 0.1182602 -0.07091209 -0.1332912 -0.2220046 -0.05297708 0.09525362 -0.0682248 0.01142158 -0.04050991 0.001075297 0.2602466 0.1734801 0.1213339 -0.03551041 0.08473541 0.0633376 -0.1100225 0.068074 0.07973567 -0.006157236 -0.1159217 -0.07297543 -0.0127673 -0.07434237 0.0398571 0.1135697 0.04256621 -0.06480538 -0.001102422 -0.01927384 -0.111673 -0.1534344 0.06344588 -0.01684357 -0.06898278 -0.06170777 0.07946404 0.01872625 -0.02220613 -0.05046031 0.1067316 -0.1016274 -0.1138691 -0.07848252 -0.04734289 0.07805065 -0.2366945 -0.0721755 -0.1330525 -0.02596631 0.1637139 0.1283593 0.1402721 -0.03259273 0.02162606 0.08379089 -0.07579252 0.09038484 0.06219482 0.05331199 -0.06261577 -0.1281458 -0.06586351 -0.02641245 0.1395936 0.1296409 0.05542994 -0.02952089 -0.01497092 -0.01855779 -0.03799859 -0.1227574 0.002613374 -0.0412094 0.04028404 -0.1097507 0.008500488 -0.0346118 -0.105969 -0.1126367 0.05223085 -0.09248563 -0.0438063 -0.1422954 -0.03878568 0.003971654 -0.2956342 -0.03013437 -0.09849844 -0.04657973 0.08845872 0.1018408 0.07266532 -0.06529012 0.05013581 0.06176009 0.01016665 0.08456654 0.03808704 0.1344291 0.03839955 -0.1066004 -0.1115379 -0.09277612 0.1442266 0.09198553 0.1076229 -0.02640286 0.03523042 -0.05647833 -0.03699473 -0.06549003 0.1286281 -0.04621658 -0.03456136 -0.1750482 -0.002731707 -0.0350701 -0.09900066 -0.09487339 0.02593801 -0.05059043 -0.02236135 -0.0702699 -0.03028791 0.001810583 -0.2470322 -0.07259542 -0.1638672 -0.08109642 0.006787407 0.02845303 0.0005737403 -0.09179682 -0.008078772 -0.0131284 -0.02822688 0.1965788 0.08886696 0.1681041 0.0009335497 -0.1077006 -0.09835283 -0.06711394 0.07186555 0.009567469 0.06253795 -0.09412896 0.01289824 -0.07824298 -0.01153206 -0.009396516 0.2364748 -0.02556554 0.04967463 -0.08690546 0.02381216 0.04269394 -0.1160998 -0.1990671 -0.06192764 0.005044155 0.07829081 0.02163947 0.05648286 0.04483434 -0.2523122 -0.07029896 -0.1828989 -0.02322356 0.0227594 -0.006895033 0.07857935 0.01147345 -0.03670895 0.01887451 -0.03204913 0.250783 0.1845679 0.1970721 0.02620192 -0.03467324 -0.1285931 -0.1451047 0.08477434 0.06739605 0.08301394 -0.0312124 0.1324007 
  0.1436115 0.04591314 0.1744894 0.2321339 -0.1384953 -0.01151859 -0.02050453 -0.3099746 -0.1409601 0.03816952 0.1374656 0.1459116 -0.3813387 0.07537993 0.1663168 -0.1881978 -0.1229222 -0.03087317 -0.2127974 -0.2275196 -0.260121 0.01002062 -0.004957302 0.1844431 -0.02475128 0.03062504 -0.01536703 0.2066952 -0.01295603 -0.1747181 -0.01291809 0.2233469 0.1337655 -0.0354849 0.1058171 0.04790063 0.04556371 0.02300192 -0.07450961 0.109845 0.05139817 -0.04862763 0.09543778 0.1370055 -0.1046684 0.1437473 -0.03809747 -0.1790028 0.01775257 0.07134549 0.0584009 0.02334694 -0.2386136 -0.02359021 0.1224464 -0.235798 0.03032374 -0.002634894 -0.1679168 -0.1044752 -0.2288845 0.07679063 -0.006138523 0.2114653 0.02868604 0.02771052 0.02059867 0.1526463 -0.0919558 -0.1465453 -0.03865052 0.1480501 0.1207382 -0.06195952 0.1632719 -0.01619456 -0.004819019 -0.07391028 -0.0367884 0.1643495 0.04676749 -0.04449322 0.09600943 0.0824841 -0.007087552 0.03905387 -0.1147044 -0.1464731 0.04274784 0.1188532 0.01167267 0.1222922 -0.01873053 0.06489233 0.1689364 -0.05837051 0.08577336 0.0608992 -0.06307101 0.03556959 -0.1436243 0.07866926 0.02884176 0.2151392 -0.03983661 -0.04066863 0.05043292 0.1379436 -0.04264932 -0.1392881 0.0177344 0.0980638 0.1382854 -0.01414081 0.1219373 -0.01132752 0.04141841 -0.02405505 -0.02255545 0.03757039 0.08293957 -0.05842022 0.10719 0.05143856 -0.05863545 -0.07698415 -0.1356679 -0.1155936 0.04518616 0.09917595 -0.131643 0.06361615 -0.09770647 -0.04586284 0.185795 -0.00489589 0.02833079 -0.02064446 0.05524037 0.1087348 -0.1146071 0.0663949 0.01342225 0.1689158 0.04489666 -0.1032041 0.016622 0.07144821 -0.01121013 -0.0467042 -0.003309371 0.1510236 0.1016922 -0.06362028 0.08373384 0.03537567 0.0290429 0.07199319 0.05978173 0.04896408 0.07958399 0.04099545 0.06908897 0.06716598 -0.1366161 -0.03923508 -0.08383243 -0.002936188 0.1011381 0.1244331 -0.1246909 0.08320478 -0.1423362 -0.09447479 0.232165 -0.02602071 -0.02823195 -0.05418852 0.01187199 0.1118423 0.01991262 0.03093685 -0.000510973 0.0745259 -0.02226424 -0.1227884 0.08506475 0.01814596 0.04291456 -0.05548127 -0.05667445 0.1310946 0.06690847 -0.07393502 0.07297464 -0.03834334 -0.01584005 0.02709132 0.01016543 0.04709326 -0.03548992 0.01019961 0.09043272 0.07238796 -0.05603194 -0.07539461 0.01285579 0.03608457 0.1227053 0.1201183 -0.09537999 0.07985848 -0.2066218 -0.04395278 0.2212956 -0.03070796 0.02220074 0.02205785 -0.0355291 0.01223569 -0.03296597 0.0131496 -0.04608824 -6.78684e-05 -0.06975773 -0.1458777 0.08211216 0.03897935 0.1065522 -0.1164612 -0.06662023 0.07424901 -0.004171376 -0.0736213 0.02621127 -0.06661361 -0.08888055 0.04599278 0.01084487 -0.07739247 -0.1052795 0.07682767 0.04901915 0.02351629 0.01934328 -0.1339815 -0.04649872 0.04024349 0.05855097 0.08313616 -0.08475035 0.1074246 -0.2055992 0.08751824 0.1898509 -0.04553583 -0.02680247 0.1367025 0.03143055 -0.02783772 -0.06516968 -0.04739065 -0.1048319 -0.0007191187 -0.1032565 -0.1896217 0.07244749 0.01432468 0.02769808 -0.0592416 -0.101389 0.07107474 0.01768241 -0.03319114 0.03735216 -0.08247735 -0.07529292 0.02935505 0.01264207 -0.0450654 -0.08682641 0.1099794 0.05875453 0.02731189 0.03619871 -0.1041899 -0.004441453 0.09521957 -0.003532054 0.06190766 -0.1087583 0.07273911 -0.152198 0.07227115 0.1997712 -0.005975751 0.02132786 0.1356227 0.04987 -0.06401084 -0.06671414 0.03212903 -0.1078757 0.007975522 -0.03689476 -0.1001666 0.09995393 0.01930627 0.08260599 -0.05014639 -0.007120972 0.05052613 -0.01773878 0.04668367 0.1161215 -0.002072057 -0.02756452 0.01463899 0.06587493 -0.05640597 -0.0627858 0.01252982 0.03824729 -0.003496573 -0.1099252 -0.1702923 -0.08424971 0.01354509 -0.05741606 0.01295698 -0.0732667 0.104182 -0.2063179 0.01648262 0.1689057 -0.09210958 0.08319587 0.2124714 -0.0130827 -0.03544171 -0.1380929 0.01510579 -0.1733353 0.02056389 -0.05362061 -0.08305242 0.0791705 -0.0501569 0.01574094 -0.04141292 -0.02826495 0.02174351 0.0365619 0.03680315 -0.009223795 -0.1030055 -0.02770588 0.006011697 0.0487094 -0.08737783 -0.03624498 -0.03137257 0.037588 0.01655724 -0.06365706 -0.06947286 -0.09733179 -0.006126205 -0.02936753 0.09256712 -0.0620864 0.07160326 -0.1796986 -0.06228907 0.2411075 -0.0462534 0.027169 0.1644022 -0.02514356 -0.01561283 -0.07708649 0.06444217 -0.09895463 -0.004838932 0.03055327 -0.08290894 -0.008231916 0.01522059 0.07545561 -0.03597713 -0.01822736 0.09080473 0.02312244 0.04617375 -0.02927469 -0.04430339 -0.0373897 0.007930542 0.01031336 -0.08480303 -0.02145674 0.001051166 0.02839625 0.06794775 -0.04595354 -0.02447191 -0.01990087 -0.05601786 -0.000899614 0.05326546 -0.03281006 0.1068673 -0.1327178 -0.01662763 0.3367952 -0.01200968 0.01876221 0.1275624 -0.09030149 -0.02857457 -0.02468295 0.02787995 -0.03209342 0.001568064 -0.0456261 -0.05446137 0.009784957 -0.003994204 0.03884531 -0.01760401 -0.02767771 0.05034613 0.0593547 0.05759254 -0.02099469 0.01025093 -0.01956517 0.00781264 -0.02176393 -0.05018679 0.03194081 0.002031688 -0.004323903 0.06422647 -0.09951347 -0.1532835 -0.05741454 0.005654703 0.07604253 0.01551603 -0.06067063 0.0237058 -0.1542932 -0.1010523 0.2155734 0.0215648 0.02892634 0.1610541 -0.1051532 -0.06523954 -0.1035975 0.01634097 0.02315228 0.1283194 -0.008310992 -0.04496605 0.04235398 0.05042885 0.07965743 -0.008965132 -0.04350123 -0.004960878 0.03310377 0.01818613 0.02481291 0.0008704084 -0.01127884 -0.0004975358 -0.04198957 -0.01411359 -0.01021275 0.04014936 0.0155203 0.07523449 0.004816501 -0.1772861 -0.02415432 0.01931833 0.1198562 0.07916386 -0.04324187 -0.02930817 -0.05858877 -0.1100112 0.190198 0.04426281 0.1071806 0.1663063 -0.02253114 -0.004433138 -0.06778198 0.01755012 0.01388821 0.1061536 -0.07301795 -0.08392004 -0.04783135 0.1156362 -0.03553133 -0.007490217 0.02852635 -0.008661072 0.0009708452 0.0009081409 -0.07365786 0.01804321 0.06502608 0.1288482 0.01834602 -0.01992351 -0.01703918 0.04559996 -0.02498833 0.0671 -0.0590991 -0.2068816 -0.003496144 0.04553462 0.1475511 0.03487031 -0.0258305 0.01546997 -0.07635202 -0.1601677 0.1586603 0.05261728 0.0668222 0.1508611 0.08345279 0.05434776 -0.01461113 0.007817867 0.1005432 0.1427686 -0.05726613 -0.04404921 -0.1541894 0.1005972 0.009955907 -0.04267529 0.07532731 -0.07295491 -0.07650477 -0.0105669 -0.0591705 -0.01506492 0.02364377 0.105248 0.001085823 0.02348789 -0.07417054 0.03590801 -0.01256292 0.01727637 -0.1545951 -0.2345288 -0.07955609 -0.02822614 0.03002105 0.0639253 -0.0339516 -0.00817831 -0.1475897 -0.1905971 0.1358991 -0.07618089 -0.06194659 0.1178273 0.1226269 0.02597321 0.1302622 0.04117776 0.1183137 0.2061266 -0.06668521 -0.07588913 -0.1153998 0.07093711 0.08117314 0.02764301 0.048249 -0.1064896 -0.03027841 0.02020168 -0.09454325 0.0379787 -0.04313681 0.03453725 -0.0005707674 0.0821358 -0.07319226 0.06703726 -0.01179056 0.02323484 -0.1182574 -0.1536716 -0.02607285 0.02744117 0.09186283 0.04375162 -0.05870446 0.04409745 -0.03648581 -0.2028921 0.1406132 -0.1482178 -0.21551 0.1265332 0.154732 -0.0388985 0.1072614 0.02260193 0.0993633 0.2893203 0.02777912 0.005626743 -0.1138186 -0.07220485 0.1130105 0.02465911 0.03961934 -0.1945743 -0.0979195 -0.005869251 -0.1234522 -0.05844126 0.02932141 0.05152813 -0.008961416 0.07324784 -0.1346229 -0.03219709 -0.03368025 0.04054444 -0.07115671 -0.1031212 -0.1316879 0.05099939 0.106403 -0.05053077 -0.033538 0.156413 0.04892165 -0.1412034 0.1527776 -0.1656204 -0.3172862 -0.01894183 0.1370115 -0.1046645 0.1680165 0.2062899 0.2789465 0.3309486 0.01458857 -0.08490508 -0.1091586 -0.1178133 0.01525573 0.01943324 -0.07503151 -0.2514534 -0.1152865 -0.01796542 -0.1993839 -0.01020155 0.004406746 0.01401244 -0.002145628 0.06928815 -0.08241467 0.006229632 -0.0525827 0.0960743 0.003694772 -0.09501896 -0.07528593 0.0228077 0.0607946 -0.1276183 0.006133883 0.2063223 0.1889718 -0.06841604 0.2217727 -0.01178911 -0.420397 -0.2673317 0.2108376 0.01695221 0.3010786 0.3487636 0.3623424 0.2956284 0.01489772 0.0009197666 -0.1926447 -0.1153197 0.07083295 -0.05181259 -0.02894834 -0.2716224 -0.0419479 -0.06554431 -0.1880971 -0.01225408 0.01554928 0.009749478 0.0373538 0.1129041 -0.04992812 0.1339498 -0.07796455 0.06665543 0.05724282 -0.01142096 -0.03474952 -0.01223011 0.06261175 -0.1076806 -0.02175756 0.1718313 0.1394902 -0.05119091 0.2461478 0.08835476 -0.322735 -0.1801862 0.118314 0.06055049 0.355591 0.438724 0.1524954 0.1177439 -0.03907985 0.02719686 -0.06869432 -0.05831938 0.1423791 0.06565685 -0.1044909 -0.1191815 0.04912115 0.003330866 -0.1502719 -0.05593567 0.04217684 0.05679107 0.03660228 0.1313319 0.03205656 0.0925587 0.05806296 0.03717543 0.003875882 0.01078256 -0.0135146 -0.1062412 -0.008731694 -0.08814024 -0.07984254 0.05158459 -0.1168369 -0.1914667 0.1862984 0.1229732 -0.1418046 0.07682054 0.2807824 0.06710848 0.1282636 -0.06690452 -0.3943955 -0.2342386 -0.1266673 0.08402 0.02608865 0.07332448 0.2359527 0.09860983 -0.1113541 -0.08289984 0.03300068 -0.0297703 -0.09629727 -0.006324586 0.05596765 0.03661121 0.04323519 0.1603818 0.0524431 0.1431568 0.03135047 -0.01846137 -0.009582061 -0.03049592 -0.04955044 -0.2262042 -0.05382549 -0.04319127 -0.08328538 0.002755357 -0.1550751 -0.241366 0.1100334 0.1739227 -0.01025256 0.2660638 0.4668791 0.2199485 0.1250491 -0.3032276 -0.5565149 -0.5420213 -0.2771288 -0.08329824 0.02419391 0.1181137 0.24232 0.08796403 0.006886874 -0.005797882 0.08863051 0.03635094 -0.08938982 -0.03159698 0.001592738 0.009359661 0.0007455045 0.1712706 0.009993962 0.06108376 0.08499447 -0.04363319 0.004642552 -0.01343833 -0.03061455 -0.2275462 -0.1018346 -0.1098158 -0.1326401 -0.006851502 -0.07342769 -0.2403128 0.1212098 0.1892223 0.0239556 0.2399288 0.3153944 -0.01481885 -0.03347146 -0.2641145 -0.4309891 -0.6071793 -0.3201078 -0.3364813 -0.09531423 -0.0810195 0.1591687 0.09921055 -0.01628355 -0.02994356 0.07696471 -0.01305986 -0.06707157 0.06058048 -0.03058833 -0.006812757 0.00461302 0.06475258 0.01720085 0.1253684 0.07300602 0.04236871 0.1377212 -0.04207228 -0.03307638 -0.2186131 -0.09631969 -0.09540158 -0.1543705 0.03803019 -0.1017841 -0.1714839 0.116037 0.2139457 0.04684266 0.113146 0.2180526 -0.17381 -0.09433906 -0.1716758 -0.2484688 -0.488672 -0.3250217 -0.3887079 -0.1102982 -0.1533808 0.1207438 0.1358565 0.01192227 -0.04401148 0.1308349 0.0271355 -0.04761487 0.03981045 -0.03077015 0.08461576 0.0073786 0.09205358 0.04303382 0.08099374 0.0479461 0.01688822 0.07193082 0.02778084 -0.0688879 -0.1706655 -0.1339969 -0.009461623 -0.1493593 -0.009420292 -0.04306587 -0.109949 0.08706125 0.2378032 0.04981859 -0.05426253 0.05285432 -0.1946619 -0.05645968 -0.1266448 -0.278234 -0.3927719 -0.1974884 0.001888643 -0.04385607 -0.1388052 0.171249 0.1499626 0.06977349 -0.08539487 0.01577017 -0.07777518 -0.05788774 0.02886336 0.04059189 0.03707581 0.05700554 0.1360203 0.02663598 0.04165294 0.05567257 -0.0161873 0.01469393 0.07105655 -0.01532896 -0.1308605 -0.01084707 -0.02117021 -0.07903737 0.1038578 0.002034397 -0.1139962 -0.08784448 0.2471096 -0.050512 -0.1847755 -0.05156958 -0.2217348 0.007283122 -0.2412838 -0.3656064 -0.4187116 -0.05527044 0.2756206 0.1449555 -0.03250693 0.1793166 0.1844416 0.06571525 -0.07164446 0.005675773 -0.06501587 -0.09277102 0.04522922 0.02868227 -0.03133424 0.03752434 0.09316207 0.04791241 -0.03049888 0.02750766 -0.008579119 -0.04401172 0.1344528 0.09292237 -0.05518497 -0.06864205 -0.0535726 -0.02401568 0.1024417 -0.02764874 -0.04688345 -0.1101945 0.2155625 -0.1495003 -0.334264 -0.1172584 -0.2250201 -0.02405651 -0.3047528 -0.3695942 -0.266636 0.0686605 0.4562932 0.2202137 0.01459952 0.162753 0.1317046 0.02639587 -0.04767355 -0.02508372 -0.0608473 -0.1350951 -0.002675108 0.02823595 -0.09152392 0.008210741 0.07934532 0.1004603 -0.04317908 -0.003077378 0.04786466 0.03582697 0.1628004 0.152312 -0.1088421 -0.03488758 -0.003229983 -0.1213511 0.08612423 -0.01428085 -0.05005642 -0.09935918 0.1994803 -0.2202659 -0.2657881 -0.1090542 -0.1763612 -0.03829762 -0.2089823 -0.08755358 0.07807438 0.2253497 0.5303077 0.1514375 -0.01073521 0.1895186 0.1901789 0.1714844 0.03193679 -0.01572586 -0.1207444 -0.2197781 0.01329519 0.06465396 -0.07643863 -0.05659614 0.07251007 0.1000403 -0.0160927 -0.07086068 -0.003637966 0.1205196 0.2042558 0.1524869 -0.05612961 -0.01303341 -0.0971768 -0.137753 0.173039 -0.02764542 -0.01677858 -0.0773344 0.07981527 -0.1885625 -0.285971 -0.1964309 -0.09301911 -0.04055639 -0.01813628 0.1331513 0.2108132 0.333065 0.4905578 0.1027171 0.03413823 0.202489 0.1663034 0.1093938 0.01273001 -0.007811937 -0.1037534 -0.2235052 0.04130804 0.09213746 -0.03665971 -0.1067927 0.07289575 0.08364082 -0.06093677 -0.1092142 -0.0724448 0.1003063 0.1593462 0.1122627 0.1555759 0.07466384 0.1486031 -0.01090731 0.2880845 0.03927007 -0.01082652 -0.1254313 0.1050554 -0.167486 -0.3040503 -0.1389306 -0.03665957 0.06833868 0.1020175 0.2428461 0.3216467 0.2969526 0.4208992 0.03731901 0.04064767 0.2703809 0.1432155 0.1155355 0.08123545 -0.008605368 -0.01764826 -0.1351089 0.1184612 0.1458554 0.02536465 -0.01392891 0.08440401 0.09583709 -0.04467531 -0.06601672 -0.01739387 0.05569893 0.0679488 0.1235372 0.1696504 0.1467194 0.07609383 -0.003096091 0.2712222 0.01454872 -0.1240827 -0.09150352 0.04123311 -0.1262421 -0.2330674 -0.07256064 0.1164096 0.2090003 0.1007993 0.219129 0.326977 0.2097227 0.2940646 -0.005086525 -0.002777137 0.2379948 0.1248867 0.1266585 0.006798977 0.03789462 0.05141779 -0.05182126 0.1506774 0.1312952 0.02752718 0.1126566 0.1412072 0.1011601 -0.01415596 -0.03108737 -0.1046638 0.03939027 0.06599988 0.04566982 0.1358552 0.1313077 0.09010168 -0.03716405 0.1758403 0.1076267 -0.0008960689 -0.04065282 0.03138496 -0.09517801 -0.2173095 -0.07574258 0.1647867 0.2080433 0.08071318 0.189496 0.2248583 0.1801022 0.2186076 0.0124156 0.0537814 0.1907273 -0.01886798 0.08801387 -0.009766502 0.08215138 0.01553188 -0.0525202 0.06612333 0.1562541 0.09545489 0.06737428 -0.02094372 0.08849858 0.01795291 -0.007265505 -0.1074031 0.07950991 0.1598269 0.1268027 0.03859757 -0.01216248 0.1037406 -0.08603317 0.1157286 0.0705024 0.07506967 -0.07742049 0.002039312 -0.112793 -0.2062601 -0.01726593 0.1850429 0.1352247 -0.002281812 0.08849146 0.09257165 0.1077229 0.1451304 0.01577664 0.0549525 0.1283089 0.04497047 0.01498209 -0.08409321 0.01228534 -0.06286579 -0.1354488 -0.006552693 0.1165197 0.0641521 0.05027287 -0.02233457 0.09583831 -0.04029136 0.03844567 0.006434536 0.1005541 0.09148155 0.120273 0.1171769 -0.03546899 0.1433634 -0.05284601 0.01719544 0.008542056 0.03245444 -0.1225543 0.01567024 -0.1420204 -0.1807506 -0.06395369 0.1184738 0.02690051 -0.06872734 0.0590358 0.03523588 0.005880947 0.02334768 -0.04911191 -0.00918475 0.04273786 0.00582472 -0.01662992 -0.1219763 -0.1071249 -0.09438308 -0.1378606 -0.07958809 0.05658478 0.0413399 -0.0682081 -0.03576143 0.09605172 -0.05570671 -0.002714928 0.05755719 0.1526199 0.1891032 0.1300831 0.04718567 -0.0785286 0.2243796 -0.008321206 0.1027582 0.04993246 0.0270732 -0.1408522 0.08448764 -0.04094225 -0.1191773 0.02052528 0.1315056 0.0028747 -0.02980615 0.1044163 0.02904881 -0.02757317 0.01858095 -0.03055806 0.01987444 0.01248029 0.004460612 -0.02519363 -0.1266977 -0.1033314 -0.07868231 -0.1764057 -0.03252645 0.05201932 0.08859654 -0.02473861 -0.01821725 0.1427367 -0.09424365 -0.08345391 0.1015827 0.1567341 0.1782808 0.2237273 0.04491691 -0.05902488 0.1396931 -0.007006633 0.2273032 0.1356089 0.06738824 -0.05763516 0.05906464 -0.08938853 -0.1461586 0.02034705 0.1500092 0.04108139 -0.0312735 0.1020878 0.03189937 0.006568848 -0.01510349 -0.1011749 -0.08176738 -0.02320156 -0.01707207 0.01799819 -0.05463792 -0.102686 -0.1038818 -0.2055977 -0.1234163 0.02931644 0.1093533 -0.02080265 -0.00388353 0.1280598 -0.07837954 -0.07273059 0.07471437 0.1456869 0.06639437 0.1356305 0.0698622 -0.0466112 0.180019 0.01888525 0.141707 0.02396524 0.03899214 -0.1148382 0.06503946 -0.07752547 -0.07042606 0.04977764 0.1071625 0.06437024 -0.04010235 0.06925073 0.05530285 0.01959135 -0.01987859 -0.04194856 -0.1381216 -0.03471602 -0.04781199 0.01821847 -0.1027842 -0.1011687 -0.05687013 -0.1687441 -0.0767607 0.09346335 0.09885542 0.01665566 -0.02974792 0.08290484 -0.1022646 -0.07016289 0.09409308 0.1100452 0.08265783 0.1320416 0.07011721 0.02830243 0.08769644 0.0527992 0.1615501 0.03227418 0.001912136 -0.1251798 0.025944 -0.01651081 -0.02979557 0.03611005 0.002554065 0.06059717 -0.003176347 0.05212772 0.1128742 0.09359536 -0.07625497 -0.04984288 -0.07963777 -0.08728233 0.03320146 0.0989209 -0.05353953 -0.08720622 -0.01758672 -0.1454764 -0.04979785 0.0503507 0.02398197 0.006882946 -0.0848447 0.04865309 -0.04296174 -0.125745 0.04756889 0.110898 0.02580342 0.007069374 -0.03665445 -0.0394772 0.1201192 0.08660968 0.1978734 -0.009501135 0.04555314 -0.09965837 -0.06643137 0.05810468 -0.01165636 0.005206692 -0.04301488 0.006345491 0.01168854 0.09421865 0.1810476 0.1378084 0.03741598 -0.05144736 -0.09718557 -0.06521983 -0.002734434 0.01935122 -0.01769261 -0.04501877 -0.004232729 -0.1275464 -0.03718053 0.07387159 0.02442129 0.01797451 -0.0640011 0.02167541 -0.1047322 -0.07149343 0.1355988 0.1557138 -0.08525867 -0.02182684 -0.06637773 0.00638867 0.0670793 0.08625839 0.2354702 -0.06729085 0.04856431 -0.09111152 0.007985143 0.1087213 -0.004806225 0.02872049 -0.01439055 -0.04211918 -0.03573687 0.03782383 0.1911877 0.1233622 0.05654679 -0.1309752 -0.07407961 -0.1583197 -0.04447713 -0.03790664 -0.06523771 -0.1186917 -0.03522273 -0.09910942 0.01240275 -0.01955875 -0.02199438 0.01739418 -0.0477228 0.01858732 -0.03164333 0.007820393 0.2298411 0.2418181 -0.07052539 0.00528325 0.07336568 0.1022686 0.07417884 0.1029015 0.1342645 -0.1135005 0.1264268 -0.1349423 -0.01745079 0.1065227 0.07039704 -0.01229431 -0.02737256 -0.07452922 0.00412924 0.0135076 0.0975899 0.04681491 0.05652937 -0.1911371 -0.27896 -0.2065536 -0.1155597 -0.06867966 -0.1003729 -0.1368709 -0.05193077 -0.1274332 -0.06450848 0.02069808 0.06507658 0.03560956 -0.03008072 -0.0718381 -0.04393406 0.0946708 0.4385907 0.3837441 0.06735665 0.1009166 0.1282007 0.1184915 0.03317522 0.01167982 0.02432108 -0.1690293 -0.03716009 -0.2388619 -0.1198282 0.1066099 0.04821014 -0.05255286 -0.09619339 -0.1999431 -0.1056554 -0.03717265 0.1332135 -0.003326504 0.001513005 -0.2605737 -0.3345839 -0.2438128 -0.1738965 -0.110263 -0.06263233 -0.01217116 -0.04092743 -0.1782811 -0.1351417 0.06355621 0.1258323 -0.02890784 -0.08520804 
  0.2626195 -0.3401103 -0.9477223 0.05202526 0.8275728 0.06750412 0.02349696 0.3393446 0.2268795 0.3559867 0.3916887 0.2276131 0.2477349 0.509235 0.1541712 0.2100973 0.0121978 0.1894731 -0.06257141 -0.04414454 -0.03830659 0.02369031 -0.004354656 0.1356524 0.04065065 0.001533727 0.05788391 0.1651438 0.2169844 0.2510379 -0.03150157 -0.09425922 -0.08541302 -0.3905181 -0.02825706 -0.04688746 -0.07225184 -0.04643209 -0.1246503 -0.35797 0.2810935 -0.2170139 -0.8056164 -0.07150465 0.6531453 -0.1036393 -0.02909898 0.07544479 -0.1187798 0.0319289 0.1031171 -0.001755645 -0.01961046 0.1986762 -0.06029335 0.1782606 0.07820237 0.1330708 -0.06089689 0.003120593 0.06101074 0.05364067 0.02710359 0.11695 0.07618532 0.06140863 0.03703198 0.1498581 0.156491 0.2209176 -0.03130091 0.0364913 -0.008370691 -0.3683327 -0.006322084 0.05261001 -0.1163385 -0.03959658 -0.04041038 -0.1269653 0.232234 -0.1270282 -0.6800219 -0.1878038 0.5438722 -0.1331719 0.03579311 -0.07790766 -0.1496638 0.006999627 -0.09831633 -0.03642958 -0.05094188 0.1826849 0.05343509 0.186656 0.07911991 0.1390231 0.03267067 -0.02182916 -0.01860492 0.01812774 0.03555399 0.2022946 0.1409068 0.05093792 0.0915761 0.1540628 0.06735462 0.2429965 -0.008284098 0.07922577 0.05289224 -0.294984 -0.01765597 0.01366203 -0.06907553 -0.08240644 -0.0206189 0.03757037 0.2241226 -0.1054137 -0.5786287 -0.2598822 0.3259535 -0.1025385 0.03547398 -0.006768876 -0.05483078 0.01440378 -0.1389734 -0.04523541 -0.1138242 0.09544273 0.05366541 0.08381373 -0.03659683 -0.008052558 -0.01744444 0.0120239 0.002418581 0.004503963 -0.05498252 0.02310742 -0.06127572 0.04187662 0.1343222 0.1149996 0.0002761089 0.1528145 -0.06511615 0.0330415 0.07278534 -0.2490836 -0.01938038 0.03012985 -0.1163446 -0.05217786 -0.01198004 0.1328273 0.191026 -0.06164765 -0.5349063 -0.2905138 0.2107441 -0.07513575 0.01021943 0.01351477 -0.02529341 0.04791648 -0.06847288 -0.05414866 -0.1602254 0.06769326 0.04137528 0.0731075 0.03284339 0.05439296 0.1115459 0.06259032 -0.03244495 0.01021823 0.03651283 -0.03332303 0.03072252 0.1259044 0.1378566 0.08625609 -0.0326161 0.08458444 0.005371748 0.02557435 0.0905278 -0.1864598 0.1104121 0.05275521 -0.04477226 -0.01309666 0.1076737 0.1917858 0.01513662 0.006217498 -0.3456697 -0.3646596 0.03716942 -0.05108798 -0.1212356 -0.02112529 -0.06919908 -0.008902018 -0.04843521 -0.1118633 -0.03352448 -0.01153293 0.005486431 0.03796155 0.05180954 0.04546931 0.08633786 0.02020356 -0.01843088 -0.1234373 0.04673773 0.00144918 0.1249634 0.08936763 0.1787011 0.04456651 -0.01147204 -0.03803509 -0.05513829 -0.08353785 0.04225026 -0.1315931 0.01647197 0.03950328 -0.02040504 0.0131854 0.07248054 0.1406887 0.02333845 0.02509623 -0.3627032 -0.3988773 0.06761719 0.02547397 -0.1945893 -0.04157672 -0.01349048 -0.03799546 -0.0432838 -0.0478498 -0.04431536 -0.05021433 -0.08474213 0.02887698 0.007751376 0.07350997 0.0734963 0.0004293912 0.09925587 0.02495644 0.02850388 0.08636009 0.1531201 0.1213971 0.1000186 0.01699844 -0.07099967 -0.1326496 -0.1384863 -0.1062891 0.01199418 -0.167181 -0.00112415 0.06788715 -0.05555976 0.07585034 0.1051263 0.1274694 0.05958791 0.1104962 -0.2504783 -0.5739989 -0.0129882 0.1376286 -0.2075737 -0.1146541 -0.1377573 0.0005358479 0.003874361 -0.05797429 -0.04112272 -0.05407571 -0.2137393 0.05183115 0.06180403 0.05038662 0.1462404 0.1143909 0.09460223 0.03794975 0.1234579 0.04090568 0.05784682 0.05857847 0.09746113 -0.05448812 -0.05100272 -0.09049167 -0.0683271 -0.1081139 0.05570161 -0.1607627 0.03977139 0.08094424 -0.06796702 0.005720018 0.09452368 0.07089709 0.01894325 0.05507732 -0.1584025 -0.6945628 -0.1993104 0.1570547 -0.1982604 -0.1522538 -0.05278063 0.07167541 0.03889871 0.03241069 0.006624885 -0.04112484 -0.1107731 -0.02617066 0.0145828 0.08349182 0.1388061 -0.01737339 0.0348132 0.07759095 -0.0482891 0.006244767 0.04033957 0.07984885 0.09823271 -0.1245615 -0.08369096 -0.09258546 -0.006797607 -0.2683989 -0.0630317 -0.1978539 0.05708567 0.07045043 -0.05326161 -0.05631896 0.01627231 0.09704615 0.07484574 0.1131914 -0.005305988 -0.7010314 -0.2063713 0.2022576 -0.1102383 -0.06226742 0.006592292 0.01641415 0.2309156 0.2298081 -0.05268134 -0.07044718 0.002169433 -0.06979766 0.08705711 0.0424825 0.1403012 -0.006107809 0.07541289 0.07638346 -0.01445275 0.04454022 0.04117569 0.1067319 0.1395632 -0.06892847 -0.08739945 -0.1113933 -0.06688544 -0.2945235 -0.1091543 -0.1751416 0.06025869 0.05848415 -0.05658086 -0.07405737 -0.02716012 0.07682814 -0.02336135 0.1347508 0.1667948 -0.6725774 -0.2266059 0.2468219 -0.02451697 0.09287082 0.1667113 -0.08436891 0.1518884 0.1520395 0.04186874 -0.03198826 0.01532159 -0.02505707 0.09173832 0.03344283 -0.02855596 -0.07797115 0.0596931 0.06466626 -0.08008648 0.07363538 0.09117269 0.1381255 0.02757475 -0.1105812 -0.122887 -0.1216447 -0.1551736 -0.1890633 -0.1284502 -0.1983611 0.06253934 0.03507071 -0.1358027 -0.101684 -0.07497834 0.08537273 -0.01657622 0.2068513 0.3674036 -0.6020447 -0.2876789 0.08638483 -0.1349593 0.1752226 0.1964977 -0.09090546 0.04760952 -0.01282552 -0.009766215 0.01913364 0.1302115 0.007525012 0.03125773 -0.01183104 -0.003559706 -0.02516597 0.01497636 0.005773256 0.03011826 -0.01032299 0.06903584 0.007971539 0.009981696 -0.07576642 -0.08454164 -0.1476952 -0.1334972 -0.1753295 -0.139527 -0.1443103 0.1211621 0.06512872 -0.1169234 -0.08949167 -0.0119312 0.1992542 -0.03354771 0.238723 0.4294244 -0.3691371 -0.2000646 0.05919557 0.0623794 0.2778367 0.1612931 -0.1651658 0.08062407 -0.05893956 -0.01757083 -0.003488971 0.09433984 -0.002876997 -0.007437176 -0.1073403 0.08408906 0.03219633 0.01310334 -0.07339092 0.06536119 0.03806643 -0.004127579 0.07000002 0.04585715 -0.05454295 -0.1054338 -0.03782047 -0.09714362 -0.1337073 -0.07732034 -0.02667877 0.1038459 -0.02596445 -0.1086514 0.04409492 0.009852509 0.2343165 -0.0187904 0.1103272 0.3477543 -0.3615901 -0.1337563 0.02554408 0.05409636 0.2056279 0.0459103 -0.08024184 0.05908678 -0.1546212 0.05687868 -0.004855107 -0.03202803 -0.04270476 -0.06929096 -0.2065842 0.01797611 0.08684693 -0.003619372 -0.0004830823 0.10329 -0.07218717 -0.04253061 0.1076446 0.1217326 -0.03987038 -0.04968461 0.05913499 -0.04885528 -0.1828481 -0.05478293 -0.101607 0.1845092 0.08329464 -0.1457417 -0.07439145 0.06649122 0.2460848 -0.07337612 0.06819243 0.4479021 -0.3080586 -0.2719274 -0.1332649 0.09895318 0.03516095 -0.01395059 0.04527883 0.09991035 -0.09915946 -0.01103283 -0.09690738 -0.02307658 -0.05105157 -0.1330596 -0.1452168 0.02040458 0.1152943 0.08330143 0.01287751 0.04776352 0.1199154 -0.04092387 0.03251546 0.2242147 0.02739722 0.01995403 0.1258511 -0.09671328 -0.1534522 -0.07575749 -0.02936697 0.2078655 0.09344855 -0.1453778 -0.05477389 0.1073072 0.3119464 -0.132971 0.02930602 0.4311665 -0.2695312 -0.2601616 -0.1232651 0.1625804 0.02782695 0.08217596 0.07843585 -0.07627571 -0.0137981 0.01693986 -0.1403258 -0.08909301 -0.07305361 -0.2474899 -0.04977163 -0.03321192 0.1026075 0.05447309 0.04164136 -0.004535794 0.02883692 -0.02926366 0.09612996 0.2166201 0.1026792 0.08931059 0.04423027 -0.07562476 -0.1834466 -0.0413712 0.02995149 0.1376006 0.07982209 -0.1436044 -0.07606642 0.1000296 0.2743369 -0.1224925 0.04599245 0.4798941 -0.2161344 -0.1575043 -0.1841533 0.210264 0.07529894 0.1044591 0.01695781 -0.1541823 -0.04666061 -0.1568353 -0.1813092 -0.1078437 -0.1381903 -0.281361 -0.1986852 -0.09490959 -0.05349845 0.08280074 -0.01173867 -0.08751094 -0.03497307 -0.007306575 0.139678 0.08734813 0.1497044 0.136007 0.06768705 -0.1148713 -0.2283133 0.04640948 0.01956245 0.08450601 0.08261832 -0.1916551 -0.09938131 0.1346841 0.2967158 -0.1383295 0.05229677 0.3882821 -0.1625565 -0.126535 -0.1342259 0.1521593 0.007039967 0.1363968 -0.03915184 -0.1586664 -0.01802538 -0.06608991 -0.1049451 -0.1066622 -0.0367923 -0.1358498 -0.1294274 -0.2316085 -0.02980687 0.006394636 -0.00216526 -0.1626081 -0.08755946 0.05715338 0.1685365 0.08273929 0.1112031 0.1811846 0.05141389 -0.09287295 -0.2069504 -0.0166398 0.01154396 0.07507712 0.08876852 -0.203904 -0.08923353 0.01328335 0.1553891 -0.1173429 0.008443074 0.3494978 -0.1350291 -0.175361 -0.008542977 0.1942998 -0.01645789 0.1907158 -0.05866253 -0.09288639 0.01306071 -0.1483897 -0.08282457 -0.1194666 0.0011921 -0.08081143 0.01525598 -0.128997 -0.05499651 -0.1103531 -0.09966931 -0.2939718 -0.1490837 -0.01586242 0.1409748 0.08518369 0.096225 0.1015647 0.02954338 -0.1227349 -0.1482102 0.09176596 0.03448725 0.04999299 -0.01639735 -0.2294056 -0.1302933 0.1127424 0.1773932 -0.03250823 -0.01088486 0.2658383 -0.01407734 -0.03055669 0.01541151 0.3466203 0.03918779 0.2109667 -0.04064465 -0.03591744 0.07991637 -0.1830917 0.003411698 -0.0006264411 0.06116146 0.05918818 0.1141527 -0.139334 0.02146283 -0.05150204 -0.0797371 -0.2960411 -0.06252424 -0.09036846 0.0757645 0.03530554 -0.03051181 0.006953645 -0.01162987 -0.0639646 -0.1170522 0.1138979 0.09638528 0.06898991 -0.03068452 -0.1429428 -0.165864 0.1152122 0.2513232 -0.04543206 -0.1671823 0.2202853 0.06067043 -0.03575626 -0.02771659 0.251362 -0.07974591 0.1886567 0.01359289 -0.04458259 0.03015919 -0.1992923 0.08619124 0.0239062 0.05925461 0.00374629 0.0007130002 -0.08837174 0.124323 -0.05277696 -0.006478113 -0.2118419 -0.1184089 -0.1899206 -0.01480188 -0.04768861 -0.1033015 -0.1066299 -0.09965095 -0.1294354 -0.174123 0.05854628 0.08996919 0.02290327 -0.06251651 -0.1272282 -0.01504873 0.08090574 0.1410334 0.00592917 -0.1363407 0.1665379 0.1332927 0.02142539 -0.1931663 0.09899898 -0.07430415 0.1002131 0.03537496 0.05747372 0.002617547 -0.2153283 0.1687036 -0.02837737 -0.01907871 0.1019372 0.03293839 -0.1285362 0.09546594 -0.01311912 0.0230624 -0.02883882 -0.03637781 -0.1290398 -0.05488399 0.01280553 -0.07829858 -0.03986313 -0.1170325 -0.08482411 -0.1336814 0.07439475 0.04595006 0.008080629 -0.05440765 -0.135682 -0.02522657 0.04490305 0.1661384 -0.02529526 -0.1933416 0.1108081 0.1364366 -0.05190814 -0.2447363 0.06899527 -0.03876771 0.01571632 0.01972249 -0.02419136 -0.02111718 -0.2061048 0.1202369 0.02134666 0.03608945 0.0988069 -0.00730513 -0.1175565 0.09376378 -0.05752871 -0.01254487 0.03343337 0.03470135 -0.120305 0.004512228 0.09505989 -0.03162738 -0.1737396 -0.1752282 -0.04646959 -0.1060105 0.08095031 0.01976356 -0.03074826 -0.04332624 -0.2004046 -0.06004317 -0.06836654 0.1772453 0.0500154 -0.2266472 0.1223246 0.1703777 -0.150182 -0.2936064 0.02359003 -0.01899909 -0.0871778 0.06099711 -0.01027662 -0.02874666 -0.1072273 0.07365397 -0.05536534 -0.1149209 0.09448215 0.05117623 -0.1633142 -0.06821679 -0.02239412 0.06370628 0.08215597 0.02335399 0.01229546 0.01003123 0.06546797 0.06017905 0.008519175 -0.1310986 -0.0381388 -0.09007365 0.1461952 0.04367939 0.004063036 -0.01301069 -0.1623882 -0.01909054 0.008861008 0.1340778 0.09352 -0.09763163 0.1178113 0.1418659 -0.1301811 -0.2420589 -0.02254828 -0.05122636 -0.05961243 0.05276542 -0.05635419 -0.02611727 -0.009626471 0.1238274 -0.06372684 -0.1284861 0.1550738 0.1318403 -0.1518456 -0.14186 -0.04374314 0.03603804 0.008289091 0.0351675 -0.03521734 -0.02073245 0.08963458 0.08007216 0.01746081 -0.03472848 0.003811623 0.02964299 0.2037679 0.09219817 0.03587767 -0.00829855 -0.1972566 -0.0001121753 -0.001544893 0.1692841 0.05531874 -0.07569845 0.07517558 0.09015062 -0.1875322 -0.2209886 0.09113502 -0.03878528 0.002162256 0.0578365 -0.120622 0.02260993 -0.05237173 0.02328985 0.00994991 -0.04555207 0.1409869 0.1210743 -0.1023631 -0.1458779 0.05682422 0.01627977 0.04097957 -0.002303278 -0.07768918 -0.02158214 0.08909175 0.08953509 0.03868506 0.04555245 -0.007468631 0.00170836 0.1901008 0.06981029 -0.02270514 0.04357632 -0.1168878 0.01209494 0.01618201 0.159317 -0.0207714 -0.1146621 -0.0003979165 0.04142362 -0.1786556 -0.09077769 0.00305637 0.06056972 0.01537265 0.1004543 -0.1201164 -0.007022895 -0.09812909 0.0102192 -0.06689949 -0.04391159 0.1401864 0.07603687 -0.008823333 -0.04456358 0.04943021 0.06400002 0.01819818 -0.01236086 -0.07018317 -0.1056095 0.2042745 0.05205016 0.07109363 0.1126717 0.08543392 -0.04865905 -0.02163987 0.05583261 0.01758013 0.02750699 -0.1382253 0.003355369 0.03487671 0.1349319 0.005824141 -0.1164904 -0.02125185 0.07705187 -0.08789003 -0.1191888 0.04809235 0.07988235 0.0795516 0.07678908 -0.1211898 -0.1792356 -0.07914695 -0.01949899 -0.06093888 -0.01125572 0.1251213 0.02890627 -0.007192734 0.01827205 0.09727971 0.0742648 0.03789217 0.04473865 -0.08170581 -0.08246707 0.111412 -0.04241493 0.07831349 0.04154259 0.00593326 -0.01450536 0.129856 -0.003326753 -0.09845442 0.01459039 -0.1286539 -0.04271631 -0.05626294 0.06981946 0.0403347 -0.1703888 -0.04022898 0.08538008 -0.01153496 -0.06297335 0.04161344 0.05471732 0.004058142 0.03379242 0.006021989 -0.03069538 -0.1117322 -0.03466791 -0.03054419 -0.06742507 0.1620094 -0.008415795 0.1329222 0.03247124 0.1029455 0.07546244 0.002121267 0.01643706 -0.2352748 -0.09527722 0.02615141 -0.03877021 0.0236582 0.004950487 -0.01975795 -0.0250035 0.09964966 -0.02368654 -0.04803854 0.004307863 -0.1131569 0.01553479 -0.1618577 0.1095937 0.02133156 -0.1534228 -0.1290025 0.07694058 -0.01424279 -0.03351133 -0.02402539 0.04027222 0.04428387 0.1505175 -0.04662997 -0.006611508 -0.03784578 0.01584306 -0.009343985 -0.0570296 0.1762732 -0.0391854 0.24001 0.1089299 0.1647993 0.04542183 -0.1143986 -0.03181826 -0.2284418 -0.021511 -0.008217542 -0.04246934 0.03393894 -0.02577173 -0.05527641 -0.002343555 0.08430946 -0.05481895 -0.05285164 -0.01449189 -0.1178873 -0.0340164 -0.1027077 0.1558859 0.09069621 -0.05014651 -0.06663244 0.03616437 -0.02922843 -0.03568168 -0.03466593 -0.06320214 0.0157313 0.08450558 -0.02972436 -0.01758313 0.01075444 0.05492413 0.02422298 -0.006707252 0.1641818 -0.1087139 0.1449011 0.02252861 0.0490749 0.055713 -0.04788127 0.0009213347 -0.2214094 -0.05012034 0.01286996 -0.04749543 -0.03361434 0.04821454 0.0227505 -0.05745046 0.08080846 -0.02143103 -0.01277026 -0.02435553 -0.08608295 -0.1147846 -0.1495027 0.1233034 0.1270786 0.03662545 -0.02303675 0.05187841 -0.07479784 -0.02365755 -0.03422145 -0.0960547 0.0368873 0.03687029 -0.0342558 0.06485718 0.04269788 0.0215321 -0.01565677 -0.0605299 0.02093714 -0.1422117 0.1638382 -0.05121735 0.05324295 0.1898874 0.09601565 -0.04237367 -0.2103381 0.08045028 0.03203834 -0.03191501 0.007511631 0.06607448 0.008757887 -0.05833413 0.03028349 0.0408207 -0.01053412 0.03167109 -0.04911968 -0.05389386 -0.130669 0.1865936 0.07971121 0.02429065 0.005963699 -0.005711553 -0.009812794 -0.01410693 0.06418325 -0.09501626 0.04958893 0.03435983 -0.103604 -0.0748209 -0.04391259 -0.06348023 -0.004602483 -0.1264595 -0.07217274 -0.1322212 0.10531 -0.08091761 -0.03342466 0.08190614 0.02033618 -0.09262547 -0.2439647 0.1462578 0.03540108 -0.08751294 -0.03399523 0.0628667 0.1117637 -0.007349948 0.03695831 8.06549e-05 -0.03134622 0.02164383 0.01379424 -0.0858908 -0.09482629 0.1736236 0.08926993 -0.01306941 -0.04546395 0.009322198 0.1107606 0.003737909 0.05535884 -0.05715281 0.01950069 0.06820837 -0.09364028 -0.04326675 -0.02753352 -0.01811971 0.01930605 -0.1221934 -0.08800936 -0.1198858 0.05898935 -0.1043636 0.04254056 0.1509957 0.09884593 -0.1123216 -0.1005845 0.2017952 0.08874829 -0.08640172 0.04514043 0.02497935 0.1050355 -0.02899067 0.01850025 -0.09285963 -0.004100289 -0.002938265 0.005895968 -0.05829486 -0.05466086 0.2044865 0.04575016 -0.01079223 -0.09141928 -0.05856189 0.07335182 0.0519417 0.1242888 -0.02367474 0.03837507 0.04467098 -0.1059059 -0.09631509 -0.03639533 -0.01611166 -0.01710461 -0.07119698 -0.1871622 -0.07674864 0.05194737 -0.001396933 0.0544007 0.03798145 0.03063364 -0.1102094 -0.04839177 0.1864931 0.06215397 -0.1215815 -0.0252434 0.05291968 0.1054266 -0.04136958 0.02559652 -0.09987277 -0.01882677 0.02636849 0.03396307 -0.04098639 -0.09909264 0.1685801 0.0237269 -0.08312035 -0.04053404 0.01580467 0.07071072 0.08844528 0.1360681 -0.01729038 0.1013864 -0.08657239 -0.1173274 -0.1212187 -0.07936005 -0.07038413 -0.1488329 -0.1023879 -0.1476032 -0.1510058 -0.07860819 0.005346142 0.1148468 0.06580677 0.008938888 -0.09540387 -0.06490121 0.1785137 0.07334355 -0.1038646 -0.03839429 -0.0009021168 0.08609943 -0.05440772 0.02191074 -0.07495506 -0.008627128 0.06552766 0.1066941 -0.0585813 -0.01435699 0.1813469 0.04583963 -0.04478892 -0.04961604 0.06219653 0.04594464 0.09262466 0.02988585 -0.09628079 0.08983503 -0.139623 -0.003402483 -0.01560566 -0.154828 -0.1278943 -0.1945809 -0.07496846 -0.1082228 -0.09366461 -0.08984531 0.002297547 0.06657639 -0.04641171 0.02165958 -0.02047614 -0.02845606 0.2354941 0.1096369 0.02058601 -0.0961319 -0.03455265 0.09558743 -0.05453642 0.1455189 -0.09126735 -0.08340927 8.252999e-05 0.08172604 -0.06444224 -0.07576981 0.195415 -0.02450816 -0.005071142 -0.06297583 0.1604891 0.02868382 0.1126911 0.02175985 -0.1554498 0.2332897 -0.01511446 0.05942415 0.04952579 -0.1295139 -0.007813235 -0.1832112 0.003686436 -0.01748115 -0.1183425 -0.09886806 0.02103529 0.04407934 -0.05247206 0.06129907 0.03111145 -0.08763787 0.141119 0.01795305 -0.07152557 -0.1206442 0.02247007 0.07511806 0.007014778 0.2424947 -0.03899292 -0.09881029 0.02326297 0.03769634 -0.02464721 -0.01625314 0.2304157 -0.002967894 -0.01688081 -0.168609 0.1180058 0.01154663 0.03772522 0.03203245 -0.1145072 0.1317195 -0.004803895 0.1061783 0.04120558 -0.1590906 -0.07971076 -0.1417354 0.002132529 0.04366404 -0.07855866 -0.1298625 0.05197581 0.04988902 -0.1021568 0.0767654 -0.0420768 -0.08859895 0.1366799 0.09538973 -0.09681504 -0.06741752 0.006232168 0.1167446 -0.02043279 0.2135676 -0.04865031 -0.1267393 -0.01080269 0.00492215 -0.03078345 -0.001917306 0.1995637 -0.02138285 -0.08938419 -0.2035967 0.09514488 -0.01480663 0.05339211 0.01969654 -0.1613792 0.07623921 0.005907697 0.1701417 0.01033567 -0.2138487 0.02329219 -0.1592125 -0.03086031 -0.0435891 -0.1981696 -0.1652903 0.01728122 0.06124702 0.00185674 0.03094467 -0.1359724 -0.1388513 0.08548934 0.1026077 -0.1592951 -0.05582445 0.01319807 0.05436699 0.0339472 0.2533896 -0.06698188 -0.1057052 -0.0681439 -0.01749781 -0.05843302 -0.006725322 0.2452767 0.05772731 -0.05647932 -0.1680886 0.33544 0.1614881 0.2093005 0.1770469 -0.01413776 0.09646125 -0.02683809 0.133947 -0.07666858 -0.3427235 -0.1101297 -0.1502693 0.009840877 -0.07359788 -0.1371071 -0.09971715 0.09734523 0.07826787 0.06681097 0.1338676 -0.101715 -0.04375723 0.05714598 0.1552483 -0.1401213 0.02018477 0.02039557 0.08760381 0.1193348 0.3330092 -0.05539021 -0.07052207 -0.08184825 -0.07909919 -0.1100024 0.03675772 0.3297539 
  0.01641674 0.1858208 0.0697505 -0.5163379 -0.1550739 -0.05260576 -0.1228441 0.0814103 0.112509 0.2170431 0.2468877 0.322796 0.2671176 0.21828 0.1067714 0.2254501 0.1251956 0.06413732 -0.1267828 -0.1548256 -0.0413228 0.1096176 0.06193621 -0.1479324 0.009305772 -0.1853966 -0.02563692 0.1772446 0.1841349 -0.06717718 -0.2043314 -0.2046108 -0.0449913 0.02387889 -0.01857644 -0.0251897 -0.193914 -0.07110049 -0.07629342 0.1518921 -0.02674337 0.09802872 0.1144568 -0.2397228 -0.01903837 -0.01104585 -0.06725525 0.09582956 0.07170186 -0.01160883 0.0562285 0.1331203 -0.008582086 0.1167195 -0.04446973 0.03757126 0.1001517 -0.0145471 -0.1749029 -0.1801276 0.04770578 0.02598712 -0.0108431 -0.07506673 -0.01650771 -0.1946924 -0.06226818 0.06898842 0.1886571 -0.08490966 -0.1336628 -0.03139332 0.08515273 0.04619207 0.01398885 0.01260122 -0.2307557 -0.1011057 0.00360967 0.05735146 -0.02954674 0.1245754 0.04050574 -0.2009469 0.04508653 -0.03877951 -0.05222763 0.08673986 0.1088434 -0.06215948 0.07162324 0.07785873 -0.03473885 0.1471892 -0.02641803 0.003811247 0.0149347 -0.03802283 -0.1040086 -0.06414653 0.09752046 -0.01779494 -0.05359073 -0.08631696 0.08162504 -0.1645584 -0.08262888 0.08122329 0.1611262 -0.02805307 -0.1093667 -0.02883777 0.06799436 0.06301862 0.07985267 0.04262478 -0.1630338 -0.04161647 0.0217821 0.08083551 -0.1140215 0.02658889 0.0218642 -0.1440307 0.05284725 -0.04168035 0.01701878 0.03402143 0.07389752 0.06481062 0.04811653 0.04781169 0.0270461 0.117006 -0.05874279 -0.03111851 -0.01481451 -0.07500941 -0.0304268 -0.04791636 0.08841196 -0.04724064 0.006150305 -0.05207144 0.06574317 -0.1700824 -0.08777081 0.1110225 0.1210182 -0.09655987 -0.1599048 0.0520928 -0.05672629 0.0298942 0.0106038 0.04676541 -0.1300987 0.008004826 -0.007588306 0.004088708 -0.1673387 0.02871525 0.1344321 -0.1646273 -0.06431161 -0.06332228 0.07901525 0.1755299 0.1935694 0.08720458 0.09051879 0.07274812 -0.0235778 0.01991777 -0.06210962 -0.0418038 0.06665131 -0.08081561 -0.03018715 -0.0801932 0.1016293 0.01047898 -0.02940876 -0.01357174 -0.01994886 -0.1478207 -0.08485877 -0.0001472132 0.1256714 -0.004173369 -0.1172444 0.003543332 -0.06069969 0.04129005 0.07088679 0.04087012 -0.04380792 -0.08908777 -0.03093867 -0.08092736 -0.2090388 -0.04301554 0.09167423 -0.08417625 -0.005109186 -0.05283398 0.07489927 0.07698634 0.2016575 0.05147409 0.05792442 0.04728939 0.0452772 0.08251027 -0.0175086 -0.126007 -0.0058329 -0.03163082 -0.09484511 -0.004953831 0.139948 0.04339686 0.01274634 0.03518929 -0.01015752 -0.02187546 -0.1759499 -0.04322978 0.06105452 0.07021599 -0.04708838 -0.03065391 -0.1070153 0.02662433 0.1417986 0.1512518 -0.04635986 -0.08825332 -0.07666767 -0.02929304 -0.2048568 -0.04191551 0.0002246537 -0.153776 -0.00346684 0.04400506 0.1086353 0.01336453 0.1848677 0.158097 0.124274 -0.0236052 0.002861432 -0.02487626 -0.06193202 -0.09022053 0.02120959 0.03279888 -0.09491361 -0.1120751 0.1769419 0.0547554 -0.010089 0.03907896 0.05375939 -0.01745863 -0.1569557 -0.0498772 0.04065371 0.1152624 -0.0514704 0.003840826 -0.1609741 0.01887337 0.1498337 0.1517237 -0.06322058 -0.1296591 -0.1021222 -0.02167071 -0.09586685 -0.02559274 -0.05260421 -0.1635642 0.003412395 0.04288502 0.02316826 0.03441407 0.2054919 0.3237424 0.2428938 0.0261378 -0.002339598 0.02307322 -0.02728788 -0.1422859 -0.005111321 0.05072941 -0.03389161 -0.09566342 0.1402037 0.111825 0.05137072 -0.0645593 0.07158212 0.02387571 -0.1558332 -0.05998023 -0.008081458 0.09752535 -0.04692615 0.03515148 -0.1242469 0.001208521 0.1632348 0.1505064 0.01410036 -0.04401859 -0.04112538 -0.01555867 -0.1702782 -0.04730522 -0.08696062 -0.1805022 -0.04843006 -0.06672012 0.01133656 0.01523004 0.2002628 0.360256 0.2237548 0.04744485 0.02638729 0.00425396 0.069056 -0.1358355 0.03489161 -0.01809758 -0.01742796 -0.04622379 0.1788127 0.1020424 -0.06287195 -0.150521 0.1439325 0.1008031 -0.1580298 -0.08584183 0.02104854 0.1842215 -0.04642491 -0.02638649 -0.1670554 -0.1432439 0.05281352 0.1444297 -0.001386274 -0.09761225 -0.04357262 0.02620011 -0.06710497 -0.05173879 -0.0430309 -0.1928309 0.01973901 -0.06681146 -0.06590601 0.1112939 0.1503074 0.2843098 0.2245971 0.2109546 0.0381619 0.1750387 0.1045399 -0.06821888 0.1808452 -0.007274672 -0.05308192 -0.04216975 0.1700599 0.1513321 -0.1048837 -0.09385192 0.1412604 -0.0005581988 -0.09080583 -0.1287972 0.0833536 0.1526158 -0.1043103 0.03329897 -0.1221589 -0.1530798 0.02972007 0.06985081 0.1170374 -0.05218887 -0.06775372 -0.005440471 -0.1338756 -0.001276421 0.06481733 -0.1909268 -0.1000184 -0.1076306 -0.1320533 0.0185996 0.2143816 0.2086667 0.1195342 0.2816322 0.05493391 0.1622666 0.0790434 -0.02233729 0.08447485 -0.1158768 -0.1094997 -0.1010933 0.08231369 0.04830034 -0.1964761 -0.06786469 0.2065321 0.04478696 -0.06311614 -0.085292 0.1223477 0.1638922 -0.1119135 0.07443669 -0.0774701 -0.1328954 0.07751194 0.1115569 0.07667103 -0.1017714 0.09392677 0.07805279 -0.12872 -0.05893088 0.09186732 -0.1742063 -0.07228023 -0.04352836 -0.09144802 0.001084816 0.2453962 0.1451393 0.07385837 0.1987824 0.09816615 0.1541928 -0.05974961 -0.1071766 0.100104 -0.1058113 -0.1379838 -0.1778432 0.0175066 -0.04232486 -0.1337751 -0.04160053 0.1655515 0.0431359 -0.1001751 -0.07204563 0.1101915 0.1411837 -0.01756389 -0.04064268 -0.09071564 -0.2059889 0.1092222 0.1337244 0.09780122 -0.0422896 0.1001407 0.09401803 -0.1470518 -0.06253796 0.1450093 -0.1332548 0.04365932 -0.0575055 -0.03515023 0.01472919 0.03786082 -0.03620099 0.0324007 0.1930905 0.09347039 0.09414641 -0.1060255 -0.07143337 0.02382268 -0.13196 -0.2219106 -0.3018201 0.0473176 0.00735994 -0.06374896 -0.1048103 0.2586725 0.1595765 -0.06735271 -0.1364985 0.07486837 0.1359109 -0.1166191 0.008333162 -0.1692341 -0.1113788 0.07984366 0.05963221 -0.02415226 -0.01402594 0.1315839 -0.03595691 -0.06753457 -0.05098772 0.1836927 -0.06959726 0.09322596 -0.07248311 0.1136009 0.1266478 0.05163343 -0.06724025 0.005442406 0.04205691 0.07120712 0.0009815614 -0.1275702 0.02806392 0.02458003 -0.1564511 -0.2270895 -0.2463557 0.1311057 -0.02085328 -0.03567332 -0.1242457 0.185185 0.2116085 -0.09892503 -0.1731204 0.02398597 0.1260709 -0.09069221 -0.03208935 -0.1883253 -0.1646323 0.05110566 0.02554156 0.02066323 -0.01877298 0.1307226 -0.002955603 -0.07621898 -0.02619043 0.1166082 -0.08138381 0.09809322 -0.1360134 0.06081232 0.08357337 0.02669911 -0.03279572 0.0581366 -0.1187512 -0.002269391 -0.1198923 -0.2497519 0.1154782 0.09188316 -0.205453 -0.1919733 -0.2117164 0.217373 -0.04791155 -0.1393906 -0.0451064 0.08477104 0.09190577 -0.1579266 -0.08405977 0.02761734 0.03332164 -0.1429348 -0.05128272 -0.1362974 -0.2189627 -0.007388276 0.01706278 -0.01948101 -0.05302928 0.05488221 0.004718949 0.01344714 0.04919847 0.02511894 0.02967308 0.13658 -0.01339052 0.0182585 0.2044193 0.05843138 -0.0766199 0.03727566 -0.1815228 -0.02623045 -0.02855177 -0.1044745 0.1319156 0.05313864 -0.2098539 -0.1681318 -0.1998258 0.08629702 -0.04907045 -0.1392474 -0.1161914 0.04454168 0.08572477 -0.1418236 0.02400073 0.09715445 -0.08285515 0.02133689 0.005912312 -0.04289879 -0.1224335 0.05447065 0.02881648 0.01361673 -0.08220814 0.04642893 -0.005081435 0.06216153 0.04164541 -0.07502127 -0.006323885 0.198803 -0.05464939 0.0548943 0.1380013 0.07558069 -0.04985181 -0.08508836 -0.2163802 -0.1629642 -0.03398102 -0.167561 0.09933348 0.134215 -0.2227676 -0.1487443 -0.1471646 0.02803959 -0.06020631 -0.1443025 -0.1370812 -0.04071102 0.02801 -0.1158891 0.1534951 0.232858 0.01595608 0.05042606 0.005884785 0.005493828 -0.08445343 0.03054349 -0.03061182 -0.03568326 -0.06371099 0.1014394 -0.01484485 0.09164882 0.04080467 -0.06779951 0.09346119 0.287694 0.06020087 0.1596225 0.09507365 0.08995394 -0.2276941 -0.1204828 -0.2856606 -0.1289931 -0.03402838 -0.1151773 0.1611144 0.2033875 -0.06034034 -0.144635 -0.1762236 -0.1234715 -0.1843337 -0.1816655 -0.2226698 -0.1507691 0.1087065 0.03551975 0.243001 0.3451688 0.05058987 0.1158405 -0.01657936 0.02575295 -0.1174824 0.02140318 0.02931144 -0.02000278 -0.0332276 0.08963408 0.1249132 0.08888859 0.02727754 -0.1298909 0.1393715 0.3868345 0.2717158 0.3614114 0.2934461 0.269747 -0.1848143 -0.2786281 -0.3121687 -0.1540269 -0.02427738 -0.1768414 0.12964 0.27751 0.02696228 -0.05285816 -0.1509563 -0.2210038 -0.2778064 -0.3612388 -0.2859161 -0.1223542 0.1223655 0.03226931 0.190899 0.2745022 0.1854457 0.0293891 -0.004640965 0.04268112 -0.0851414 -0.01716579 0.001109997 0.03401661 -0.03297977 0.1844946 0.1784853 -0.02400338 -0.009670577 -0.2349498 0.1687809 0.4586815 0.3214917 0.455697 0.4272046 0.2816026 -0.2517235 -0.2681145 -0.3255056 -0.2827954 -0.1020512 -0.2138907 0.1798244 0.3483149 0.1398429 0.004305337 -0.0003431408 -0.1536953 -0.2858359 -0.4151495 -0.3135766 -0.05095072 0.04926162 -0.03807239 0.1469714 0.2072117 0.1348662 0.08054745 0.01193537 0.06549092 -0.09902684 0.09158063 0.09005936 0.02088713 -0.007363808 0.120785 0.1682002 -0.1457274 -0.1211739 -0.173217 0.1827889 0.4862868 0.3379316 0.3342645 0.2959665 0.2711567 -0.1548589 -0.1332891 -0.269216 -0.2178463 -0.04696568 -0.0182938 0.08568738 0.196237 0.08015312 0.06490327 0.1190245 -0.0794713 -0.02153195 -0.2138519 -0.05411234 -0.01353545 0.07151338 -0.03940688 0.04273113 0.09761788 -0.04799786 -0.09396764 -0.1294372 -0.1318597 -0.2235171 0.05246163 0.008622286 -0.09698833 -0.01978016 0.02962554 0.1379109 -0.1321786 -0.09280534 -0.07758163 0.2789536 0.5715577 0.1667567 0.0721643 0.0888812 -0.01655046 -0.2460682 -0.07848188 -0.1724256 -0.2687083 -0.09355263 0.005185316 0.004782934 0.1165764 -0.1042252 0.04557347 0.03801853 -0.1925331 0.2128354 0.2342258 0.1274229 0.2010502 0.1808012 -0.06268329 0.01485578 -0.000675075 -0.1502232 -0.05761428 -0.1784156 -0.2247332 -0.2707757 -0.005310793 0.04306179 -0.05373647 0.01697646 0.008414278 0.1734972 -0.05841629 -0.13003 -0.03972406 0.2631373 0.4045527 0.09886274 -0.128203 -0.08522033 -0.09676762 -0.3155107 -0.1858074 -0.1797069 -0.2308532 -0.1415784 -0.0391974 -0.004984556 0.09227831 -0.09618161 -0.1264853 -0.110133 -0.151303 0.2109299 0.3609086 0.2040512 0.1969926 0.2219921 0.01916928 0.01524229 -0.1204872 -0.2338456 -0.08194087 -0.1957225 -0.1627608 -0.2102736 -0.01222487 0.04115309 -0.1061555 0.03199849 0.05677234 0.1598324 -0.01900058 -0.02976217 0.04436448 0.1208339 0.256585 0.06395683 -0.1718282 -0.1803324 -0.002384401 -0.2496666 -0.08247923 -0.1605152 -0.22789 -0.2268118 0.02861668 0.05329393 0.1741031 0.0288038 -0.1262403 -0.08014851 -0.07687256 0.1049601 0.3109241 0.2204495 0.1322482 0.2834673 0.06045649 0.05736182 -0.08070444 -0.1347178 -0.07702893 -0.2273647 -0.08585913 -0.1500368 0.04306746 0.04658628 -0.1449993 0.08041903 0.1024829 0.1499382 -0.02077949 0.07853977 -0.004161299 -0.02719863 0.04793748 0.02345673 -0.2152546 -0.1811788 -0.007898902 -0.2260491 -0.1293596 -0.1366421 -0.1642167 -0.1916928 0.08897112 -0.04694274 0.1558342 0.1201127 -0.04112186 -0.06298488 -0.04480995 0.04029723 0.2942057 0.2022467 0.04679074 0.14548 -0.08766161 0.01986415 -0.1036753 -0.06108681 -0.0329719 -0.2119324 -0.1335337 -0.124902 0.08249407 0.0231797 -0.07665554 0.07234824 0.09992307 0.09661963 -0.05909815 0.08176471 -0.002475342 -0.02526488 0.006899099 0.05092177 -0.08531854 -0.1472175 0.003413685 -0.2327313 -0.1475887 -0.1124622 -0.07145032 -0.2554128 0.107765 -0.008870081 0.2110197 0.1543878 -0.07568205 -0.1004529 -0.08874977 0.07542818 0.2463257 0.1138822 0.008775011 0.1345282 -0.02816103 -0.02163393 -0.03224808 -0.06943689 0.03945156 -0.2528898 -0.1589265 -0.07157936 0.08563496 -0.03443599 -0.07663968 0.08526687 0.07374495 0.08428977 -0.0100553 0.09922655 0.04552674 -0.01541325 0.1238776 0.1482925 -0.1264147 -0.02404523 0.04524773 -0.09388376 -0.1163504 -0.1180472 -0.1136233 -0.2011169 0.02208065 -0.04407509 0.1393562 0.1312443 -0.1201002 -0.07194814 -0.1378909 0.01345847 0.2386417 0.04117672 0.001753893 0.09164175 -0.0177349 -0.009181027 -0.08296844 -0.02142782 -0.03978346 -0.1950299 -0.1162292 -0.01358534 0.06189033 0.0319009 -0.01220492 0.07336914 0.0738923 0.04906515 -0.009426465 0.07407796 0.06705307 -0.03648424 0.08947971 0.1705828 -0.0636034 0.0253742 0.04680756 -0.03755059 -0.08523484 -0.08348972 -0.09323221 -0.1007396 0.04512184 -0.05251568 0.1053114 0.2373301 -0.1304885 -0.101992 -0.06796589 0.05269364 0.2367971 0.03763029 0.02559604 0.0659477 -0.1017338 -0.148269 -0.1481226 -0.01490451 -0.01159485 -0.2422209 -0.09325459 -0.05859809 0.098152 -0.01973481 0.01794234 0.103219 0.09376712 0.03606468 -0.02459864 0.07373399 0.04800917 -0.07642298 0.1294409 0.2098224 0.03359528 0.1082237 0.07534061 -0.03552101 -0.1165932 -0.1401914 -0.1135218 -0.1532914 0.06415173 0.0737263 0.1322114 0.2748902 -0.05650004 -0.1274895 0.006446642 0.09252585 0.1801434 0.07409588 0.09357944 0.1260033 -0.1072014 -0.2049914 -0.1250798 -0.02966495 0.008181664 -0.226157 -0.1048443 -0.008390055 0.1263891 -0.005639998 -0.01708167 0.0698415 0.02205209 0.03241812 -0.02649087 0.06509351 0.02494345 -0.1558521 0.04680651 0.1639017 0.1095064 0.1113776 0.06508222 -0.05930074 -0.1723559 -0.233821 -0.178031 -0.183319 0.04237726 0.04852369 0.1249442 0.1271012 -0.04180841 -0.06871841 -0.00660486 -0.04487402 0.08083429 0.0694418 0.1021455 0.1023101 -0.05996281 -0.1625525 -0.1737566 -0.09147935 0.01256031 -0.167082 -0.06926827 -0.02329076 0.05926952 0.01668549 0.05217767 0.04363228 -0.02787009 0.06708618 -0.02594424 0.08812866 -0.05272602 -0.2187711 -0.00604019 0.027853 0.0842471 0.09441959 0.06316443 -0.04843019 -0.0954304 -0.1290086 -0.1549298 -0.215741 0.08847151 0.04949057 0.06167161 0.05562 -0.07201361 -0.04322948 -0.01247231 -0.09555077 0.1226357 -0.02342814 0.1129626 0.02773825 -0.04850463 -0.09688896 -0.09904882 0.006101238 0.09388561 -0.1282255 -0.1210809 0.01360815 0.04290345 0.08457955 0.02711043 -0.006082898 -0.001513966 0.0525634 0.01112746 0.1622856 -0.04224554 -0.1323406 -0.05116016 0.003502538 0.1501541 0.109007 0.05418184 0.05686304 -0.05338038 0.0207996 -0.1144422 -0.1750658 0.03490753 0.01724482 0.1040051 0.04809145 -0.0370298 -0.1089298 0.02152556 -0.1280874 -0.01469055 -0.0109304 0.1441465 0.05707064 0.03452526 -0.1238421 -0.05534048 -0.03965418 0.1120774 -0.08041785 -0.09205355 -0.0815598 0.06384195 0.06954022 0.02323444 0.03231282 0.01272048 0.03363063 0.0518977 0.09913585 -0.02724738 -0.04748207 -0.005219055 -0.02696171 0.1151397 0.1703645 0.1334135 0.04339957 -0.06284513 -0.04424663 -0.1047324 -0.1481347 0.0349702 0.05985455 0.009547117 -0.01414599 -0.01772253 -0.1247022 -0.02609625 -0.1028317 -0.01422219 0.03948488 0.1359288 0.0656546 0.04382918 -0.1488838 -0.06090311 -0.06614344 0.05692594 -0.07964774 -0.1118787 -0.05863659 0.0376823 0.05960226 0.02558431 0.04001152 0.01383293 0.09873022 0.01509204 0.09171664 -0.04924309 0.05440916 0.05405408 0.006122169 0.04861398 0.005388599 0.09006668 0.09741438 -0.03592968 -0.05634614 -0.00918625 -0.02314422 -0.1383927 0.01568165 0.05630815 -0.1140197 -0.05672902 -0.1237612 0.01551895 -0.04924442 -0.072876 -0.01107476 0.0871945 0.0554763 -0.04746925 -0.1910205 -0.05348216 -0.07554584 0.01894917 -0.0589939 -0.0765368 -0.08080389 0.01932544 0.0395862 0.03386106 0.04137977 0.0905553 0.1750686 0.05802859 0.1085521 0.01596308 0.0009220555 0.05870591 -0.08257103 0.01459019 0.01925121 0.123335 0.1832232 -0.02278145 -0.08106242 0.009365398 -0.007653801 -0.1025274 0.1091768 0.05023148 -0.06205244 -0.06550775 -0.1776055 -0.03158562 0.05678447 -0.06377599 -0.02481489 -0.02092578 0.05361803 0.004450363 -0.1526987 -0.1004614 -0.08094509 0.08348809 0.04741798 -0.1096263 -0.1047445 0.02633824 0.04304506 0.01017343 0.08698686 0.07026259 0.1852339 0.04628028 0.1169608 0.03839789 -0.06609473 0.02600731 -0.0522198 -0.02092397 -0.08753865 0.004452709 0.2080433 -0.04086042 -0.08122703 0.03271139 0.02260233 -0.05752877 0.04959822 -0.005051745 -0.02112551 -0.0190228 -0.1448958 -0.05958635 0.0113936 0.0007822838 -0.1409197 0.03939443 0.008292832 -0.0600272 -0.1265932 -0.03267965 -0.09128918 0.01983551 0.01339755 -0.06846145 0.02099437 0.02499304 -0.02657545 0.000850041 0.05320377 0.04456617 0.2219422 -0.0739031 0.07547305 0.03924527 -0.06828588 -0.02626683 -0.009849226 -0.1356864 -0.1104111 -0.04287387 0.1496698 0.0767183 0.05210577 -0.03855939 -0.06478339 -0.03265701 0.01974442 -0.03566606 0.005316713 -0.001186826 -0.1087828 -0.03468242 0.03384644 0.04203327 -0.0231241 0.04164381 -0.02475472 -0.05942149 -0.07028525 -0.07942967 -0.1581362 0.04685827 -0.006801372 -0.06742484 -0.04223801 -0.02384041 -0.007878216 -0.05645907 0.06992883 -0.004793095 0.1768266 -0.02844624 0.03171466 0.03556136 -0.06247967 -0.09200001 -0.06593111 -0.1328315 -0.04908425 0.02212682 0.09074577 -0.01291098 -0.02625661 0.01327605 0.01654812 -0.02773536 -0.006610956 0.001648866 -0.1010585 -0.08510634 -0.065363 -0.0554495 0.1001972 0.04890909 -0.005546073 0.02579438 -0.08905779 -0.03454993 -0.02463514 0.02213575 -0.03839765 0.02995678 0.03710535 0.0171509 0.005957154 -0.1024931 -0.01429724 -0.03363619 0.1014079 -0.02646444 0.2213362 0.0575559 0.05564016 -0.01774188 -0.002984873 -0.0116803 -0.009502785 -0.08762962 -0.06743284 -0.06526933 0.03364284 0.01510288 -0.07785328 -0.1138269 -0.03656497 0.05005469 -0.06080158 0.03200097 -0.01141716 -0.0726506 -0.003963299 -0.04854775 0.03909848 0.1130624 -0.01287181 -0.06116242 -0.04398967 0.02890627 -0.01394422 0.07330589 -0.07866806 -0.01402417 -0.04375469 -0.005036287 -0.05621379 -0.1337752 -0.008236225 0.02947202 0.04168882 -0.04054876 0.1893545 0.06145108 0.06484123 -0.004947452 0.1519583 0.09117204 0.04718485 0.01494636 0.02269627 -0.07418588 -0.06942727 -0.04521218 -0.1088133 -0.1294957 0.04206762 -0.1567729 -0.07907129 -0.03299895 -0.02595111 -0.09716531 0.01701827 -0.06524838 0.07845085 0.147511 0.05163685 -0.01924258 0.01426145 0.06063059 0.04129698 -0.01202704 -0.1278519 -0.0942174 -0.01620835 0.03213795 0.02014301 -0.02371806 0.01697361 -0.02160781 0.04927336 -0.1493716 0.1882123 0.07604519 0.2042026 0.1817915 0.3508426 0.2045582 0.09869274 0.04699713 0.06695027 -0.06958836 -0.1196157 -0.2073206 -0.1743601 -0.1522687 -0.07686094 -0.3383899 -0.06431258 0.04559422 -0.08012524 0.0008140538 0.07503675 0.004034107 0.1877263 0.200567 0.1144422 -0.05493383 0.0610719 0.1176822 -0.02027212 0.03794106 -0.05843015 -0.03209816 -0.009745016 0.02777261 0.07572596 -0.05320311 -0.0003616776 0.005386945 0.01738863 -0.117406 0.1228317 
  0.02317148 -0.02094136 0.0003213972 0.1651005 -0.1055565 0.05319842 0.006637532 -0.05375628 -0.07563696 -0.1651547 -0.1981068 -0.164158 -0.2764064 -0.08387678 -0.03644928 -0.05609848 0.05430194 -0.04687751 0.1028053 -0.01745329 -0.189158 0.05218327 0.02208486 0.2684326 0.09196708 0.04026433 0.06301632 0.06377077 -0.1171647 -0.04034706 -0.1920699 -0.001152074 -0.02046897 -0.09797999 0.1079726 0.09717061 -0.01225513 -0.05368813 -0.1500621 -0.2142534 -0.02991114 -0.09792465 -0.06095096 0.09308812 -0.114815 0.03027982 -0.002720047 -0.002906895 -0.06371807 -0.05537849 0.07507493 0.04419148 0.04508473 0.04546145 0.09691275 0.1194006 -0.05846609 -0.02852951 0.04105131 -0.01324294 -0.07686139 0.05162654 0.008502305 0.1598783 0.01797404 0.002907769 0.09379915 0.01517316 -0.09649792 -0.0189772 -0.217411 -0.001332866 -0.02326072 -0.0573941 0.06987993 0.1139432 0.03654797 -0.05648884 -0.07813987 -0.06397746 -0.002610372 0.001634396 -0.1308642 0.01998595 -0.2029637 0.0786357 -0.0637393 -0.006136185 -0.06649473 0.07634336 0.07408511 0.07001389 -0.01933014 -0.04145444 0.1223637 0.04706934 -0.008736257 -0.01732011 0.07131615 -0.03434717 -0.06972225 0.02358463 -0.041621 0.1493877 0.03535176 0.004366739 0.1072207 0.06993911 0.004677188 0.03468171 -0.1365917 -0.007547095 -0.05586917 -0.02844043 0.01644043 0.095212 0.007247213 -0.03371286 -0.02219124 -0.05397333 0.005780125 0.04681346 -0.07035763 0.05614392 -0.08916555 0.08155271 -0.09242458 0.02356647 -0.1030277 -0.01976864 0.05770082 -0.04248152 -0.09035607 0.02343428 0.152355 0.05451116 0.01243562 -0.008058536 0.07480898 -0.02469699 -0.02164708 -0.01214816 0.0114724 0.1746061 -0.00160486 -0.01548999 0.110781 0.03965817 0.01660363 -0.005254583 -0.0713966 0.02816625 0.01529246 -0.03108205 0.01071984 0.03797904 0.00949139 0.01655998 -0.02514668 -0.008581111 0.08178493 0.07178589 -0.01086808 0.07364432 -0.04336583 0.06718028 -0.1104668 0.02671002 -0.169 0.006006339 -0.04309316 0.06421654 0.008289317 -0.04502735 0.1240813 0.04484911 0.0481469 0.06123524 0.1071251 0.04483192 -0.007274581 0.04670813 0.04782148 0.1472914 0.05049249 0.0366433 0.08804513 -0.02151109 -0.03265022 0.02504948 -0.09149808 0.03352737 -0.02692931 -0.01063181 -0.0308372 0.02399612 -0.03887537 0.001096147 -0.01142578 0.02657861 0.05507613 0.02847758 0.01329908 0.04249778 -0.05609008 0.08798482 -0.141171 -0.1093757 -0.08221428 0.004204858 -0.02350008 0.07565966 -0.02767829 -0.1045538 -0.04191484 0.04007838 0.06373899 0.04858727 0.1105672 0.05029253 -0.008571431 0.07498603 0.06357016 0.154476 -0.04805425 -0.03299592 0.07251076 -0.04290615 -0.06059146 -0.02649807 -0.1243159 0.0321748 -0.04237153 0.02865071 -0.06604582 -0.0685264 -0.01755152 -0.04175626 0.0007080173 0.02797476 0.04259183 0.1455744 0.1305813 -0.03039736 -0.04212565 -0.01684509 -0.1669175 -0.09760623 -0.06690273 -0.02933014 0.06218166 0.0730426 -0.004286055 -0.09531137 -0.06497207 0.006242518 0.0960284 0.05931498 0.1285254 0.04928716 0.02895358 0.07637674 0.04364825 0.1401332 -0.007332127 -0.0638978 0.09904761 -0.04214619 -0.03155975 0.06431143 -0.06942754 0.008104516 0.007579155 0.03494435 -0.08253437 -0.08068667 -0.06689077 -0.05285672 -0.1103962 -0.001412787 0.06648339 0.2301739 0.1061735 -0.03397347 -0.01173186 0.006258606 -0.1225232 -0.1901124 -0.08370268 -0.03538476 -0.0094745 0.147547 0.1046258 -0.06645522 -0.04836519 -0.04625702 0.03869274 0.1174461 0.09284335 0.108516 0.004950148 0.1022992 0.07156785 0.07869288 -0.04356839 -0.01516074 -0.005700089 -0.141316 -0.03759911 0.002578886 -0.01399718 0.005384809 0.04689369 -0.006131578 -0.07724647 -0.1429005 -0.02704629 -0.0579899 -0.1189692 -0.06439747 0.05570621 0.2158236 0.156484 -0.03831006 0.08896304 0.02311889 -0.07842564 -0.1839615 -0.08682121 0.05890464 -0.004315302 0.1803124 0.08352591 -0.05142586 -0.0949384 -0.05916498 0.001087355 0.1370678 0.04847736 0.08446883 0.09930019 0.1462877 0.04732841 0.07769316 -0.03188983 0.03142739 -0.02155612 -0.1791258 -0.06710099 -0.00131198 0.03372095 -0.0510214 0.009366544 0.1192849 -0.001613882 -0.1511497 -0.06047438 -0.08546989 -0.1405216 -0.0420103 0.1149107 0.1603877 0.08343583 -0.05223656 0.1569677 0.03635915 0.04130413 -0.091547 -0.1020308 0.04806059 0.003070103 0.1893413 0.1138532 0.00541737 -0.07903159 0.002100186 -0.05039989 0.1725973 0.1159107 0.05822406 0.08882954 0.09102806 0.08115578 0.05439611 0.01517036 0.03144313 0.02855107 -0.1769122 -0.03848472 0.006411554 -0.006762095 -0.1296154 0.0174761 0.05003455 0.02722936 -0.1093421 -0.08106279 -0.08891904 -0.1024323 -0.1115923 0.1145895 0.1486291 0.008080787 -0.04716323 0.1364234 0.1171208 0.001786331 -0.06323189 0.02909575 0.06260582 0.06806498 0.185725 0.2496833 -0.1050933 -0.02926821 0.04660056 -0.001549759 0.07417434 0.07937726 0.03655232 0.09043611 0.1104659 0.1005472 0.04926161 0.053555 -0.01772444 0.05781053 -0.08689664 -0.05842611 -0.01614651 -0.04099656 -0.1376279 -0.04042432 0.01763694 0.01945949 -0.06488612 -0.07251312 -0.07332802 -0.09302761 -0.1629327 0.1845418 0.1676241 -0.00561667 -0.04155077 0.07085088 0.02797033 -0.03257898 -0.02510988 0.04471628 0.1428156 0.1567415 0.2143212 0.2659898 -0.01013129 0.004179397 0.03997411 -0.01864106 -0.0401249 0.08741331 -0.03248505 0.1014131 0.07466605 0.02669483 0.03275796 0.04943068 -0.007360531 -0.004291891 -0.09196879 -0.01802694 0.08606663 0.01609633 -0.09621705 -0.05003139 0.07651088 0.07802653 0.008337443 -0.06352294 0.002888393 -0.1025127 -0.1352411 0.122209 0.08647313 -0.1369742 -0.1383455 0.04121676 0.05966982 0.08784415 0.09878187 0.04278012 0.1624896 0.1787042 0.1907247 0.1626483 -0.0875024 -0.05200475 -0.04170487 -0.09650074 -0.08904149 0.0473147 -0.03109914 0.07995775 0.03728994 0.02856053 -0.01398833 0.06079114 -0.02226667 -0.02055081 -0.01263835 -0.002622261 0.04861861 0.005162693 -0.07807291 -0.04429785 0.1584345 0.08640284 0.07268754 -0.05867708 0.002152469 0.009516505 -0.09936511 0.1034583 0.05700692 -0.2120125 -0.1344766 -0.002041095 0.04173828 0.07316038 0.1151202 0.02060385 0.08476125 0.1076859 0.1053192 0.0925917 -0.1454576 -0.1508378 -0.1364163 -0.09932402 0.01373345 0.04652194 -0.1431699 0.04330107 -0.0184174 0.05257807 -0.03848739 -0.00706055 -0.08787408 0.07705791 -0.02657519 0.03644345 0.1172388 0.06028796 -0.008576732 0.01126225 0.1935891 0.2044089 0.13739 0.03854004 -0.006614652 -0.04146352 -0.0007121239 0.1027418 -0.01734959 -0.1583315 -0.1490718 0.009759703 0.01099668 0.02376599 0.09297327 0.06562665 0.06605122 0.0476875 0.03637194 0.04703669 -0.1218012 -0.1064142 -0.1098251 -0.08222247 0.05812961 0.04687267 -0.0459791 0.04056073 -0.01447282 -0.003915723 -0.02539903 -0.04666679 -0.02824148 0.05162891 0.0589998 0.1189875 0.1692103 0.0614631 -0.03487432 0.06954329 0.1963676 0.2135895 0.1464934 0.09499248 -0.02219377 -0.03165741 0.02657965 0.1029871 0.01085537 -0.2013852 -0.1097111 0.0930435 0.05000314 0.04011745 0.03683031 0.09779676 0.08791284 0.02652879 0.03022124 0.004604739 -0.08280256 -0.09602985 -0.09968612 -0.06405244 0.04929063 0.08901251 -0.05121211 0.06416818 0.01736834 0.01181798 0.05297371 -0.03153721 -0.05937544 0.08354062 0.08996543 0.143452 0.1752997 0.1128148 -0.03261572 0.1351336 0.2425368 0.2180961 0.2367635 0.07581798 0.0614622 -0.006354827 0.05051038 0.07437754 0.007561985 -0.2047748 -0.05298087 0.09479409 0.07170201 0.01684603 -0.03495913 0.03299006 0.1385446 0.1245451 -0.02786282 0.007971222 -0.09189313 -0.1505315 -0.120518 -0.1025246 -0.1307418 0.04843661 -0.02354093 0.1119507 0.07088795 0.001479681 0.07639738 -0.1156292 -0.05962586 0.01350553 0.1155493 0.1245116 0.1124804 0.09688238 0.04312158 0.1473745 0.2790075 0.2083543 0.1696092 0.07054675 0.05041232 -0.02560866 0.1321984 0.02303544 -0.02861715 -0.193086 -0.1322159 0.07884491 0.07429237 0.05082953 0.02615253 -0.02720583 0.07094111 -0.004914469 -0.02970431 -0.04403343 -0.03279381 -0.1364451 -0.117113 -0.1576127 -0.2002338 -0.1245963 -0.08448721 0.1400992 0.005062813 -0.0194664 0.01073554 -0.04731291 -0.02025786 0.05783507 0.1567084 0.173121 0.1216109 0.03246051 0.04082651 0.1442326 0.2877783 0.1752303 0.1368394 0.09068561 0.05074509 0.01438961 0.06345841 0.01080801 -0.05221002 -0.2112367 -0.1846844 0.1328565 0.1071096 0.1426502 -0.07923537 -0.09252335 -0.08502372 -0.005618149 -0.1039758 -0.09945609 -0.06065046 -0.01292241 0.04304526 -0.03223014 -0.07906672 -0.2274619 -0.2736701 -0.04776151 -0.1143611 -0.1038611 -0.03650804 -0.0303579 0.0395831 0.1196738 0.1638142 0.1848455 0.1155847 0.04221735 0.05323804 0.1784907 0.2684752 0.1319844 0.07039545 0.08356645 0.05930546 -0.02298901 0.05425509 0.04637552 0.003584617 -0.1279479 -0.1379188 0.08880454 0.09438793 0.1611988 0.0521531 -0.05873331 -0.1045256 -0.0386218 -0.1678299 -0.1320418 -0.09540507 0.0632982 0.04243224 0.007550417 0.05412483 0.003232481 -0.171643 -0.1886105 -0.2680933 -0.18214 -0.01737372 0.04286325 0.05587811 0.1417844 0.177646 0.1733011 0.1116598 0.05416911 0.05062183 0.09251844 0.2079165 0.1174518 0.03815924 0.05735094 0.01885107 -0.01992064 0.05316633 -0.04582267 0.01458728 -0.1108789 -0.1818419 0.05900472 0.02175801 0.07606363 0.04548406 -0.0598774 -0.1144032 -0.01754935 -0.1754803 -0.09403687 -0.09353766 0.006614533 0.009930883 0.001295203 0.08239843 0.08861748 0.01220054 -0.01044244 -0.2143574 -0.2017466 -0.1606453 -0.02736625 -0.01906555 0.03305439 0.09635518 0.0827966 0.09339119 0.02123793 -0.01130639 0.06945375 0.09420634 0.05752731 0.06300464 0.004876649 0.01664138 -0.1317815 0.08150183 -0.08220308 0.07504563 -0.007018603 -0.1555099 -0.01263877 -0.1108544 -0.01269188 0.07464431 -0.0706688 -0.1008745 -0.04064326 -0.08512891 -0.110563 -0.1528588 0.0102007 0.08479771 0.03385967 0.1596774 0.2247659 0.1209001 0.1290466 -0.01486091 -0.02743549 -0.1199626 -0.02695233 0.0008745687 -0.01275763 -0.01816443 0.06517738 -0.04146217 -0.05519154 -0.0246581 -0.0307968 0.05333387 0.05577066 0.02657321 -0.04470748 -0.04605303 -0.1654239 0.001591312 -0.1054161 0.05378612 0.04799505 -0.2073129 -0.1107273 -0.2038414 -0.1047688 -0.05289388 -0.1438951 -0.1324494 0.000499238 0.02424335 -0.06384905 -0.05723603 -0.01085512 0.0866858 0.1555072 0.1179219 0.1717411 0.05741997 0.14209 0.09757229 0.05054343 -0.07370569 -0.01271743 0.02421654 -0.08999029 -0.03122829 -0.01223548 -0.00935972 -0.01933918 -0.03344262 -0.07000626 -0.04647512 0.006636027 0.008215399 -0.08931719 -0.06497367 -0.1849447 -0.05274858 -0.04892222 0.1069371 0.03769 -0.1889964 -0.190607 -0.1605752 -0.1229642 -0.1095347 -0.08578625 0.02007317 0.02532874 0.06099664 0.01679388 -0.07875586 -0.01236761 0.02282668 0.08494107 0.09730197 0.1353258 0.06342985 0.1505312 0.09034106 0.1270713 0.01391107 0.1204301 0.01998287 -0.08499346 0.06978493 0.01212528 -0.01905661 0.06468388 -0.00200353 -0.07259046 -0.1054246 0.04271084 0.004237632 -0.1089593 -0.0689976 -0.2162647 -0.08177111 -0.09199245 0.145165 0.0465559 -0.1483748 -0.1117244 -0.06238074 -0.1336269 -0.01217488 -0.02450427 -0.01528937 0.04958899 -0.007423957 -0.0605159 -0.06339485 -0.03480391 -0.106209 0.07697399 0.08591565 0.06368571 0.09719062 0.07684384 0.02266347 0.05732163 0.06033188 0.09489877 -0.01267684 -0.04933817 0.1106841 0.0483435 -0.05232726 0.03307205 0.05647121 -0.08969202 -0.04221326 0.03041457 -0.005902217 -0.1335533 -0.04043321 -0.1333143 -0.04540423 -0.08855962 0.1573577 0.1341723 -0.08554135 -0.1135595 -0.01635834 -0.08296413 -0.04878319 -0.008769169 -0.02762851 0.0274638 -0.002202019 -0.01326522 0.007161106 -0.05034707 -0.1266953 0.07183846 0.1543418 0.06300172 0.06249899 0.09525476 0.09598462 0.06997236 -0.04113837 0.1103468 -0.02302942 -0.01604271 0.09718492 -0.01530057 0.04213667 -0.008830785 0.01423821 -0.04467117 -0.03993047 0.02225308 -0.005391503 -0.1143493 -0.1011066 -0.03336033 -0.04355143 -0.1441491 0.1058021 0.2118017 0.0845835 -0.0706735 -0.0247631 0.0355609 -0.03461158 -0.01154477 -0.03125963 0.07150991 0.06311674 -0.02769696 -0.02714488 -0.006922211 -0.139355 -0.0222577 0.04142679 0.03112893 0.05711298 0.02546163 0.05010176 0.06619886 -0.02295732 0.1362294 -0.09536404 -0.04050129 0.08806895 -0.0006957607 -0.007287539 0.0406482 0.06228816 -0.08582924 -0.07057988 0.001421319 -0.03611889 -0.131605 -0.108581 -0.09849805 -0.03929116 -0.1231536 0.09964995 0.1940584 0.1008362 -0.05815969 -0.001024561 0.0453773 -0.09303246 -0.01353989 -0.08627506 0.05987737 -0.01837111 -0.08020207 -0.06568714 -0.08876573 -0.1828493 -0.07325891 0.003268292 0.0619763 0.04014071 -0.005049587 0.08545046 0.1766115 -0.01127546 0.06068482 -0.0405446 -0.05972354 0.1487948 -0.05119156 -0.04881496 0.006792776 0.1072861 -0.08001953 -0.104589 -0.03818179 0.01017292 -0.03096638 -0.07705131 -0.06342799 -0.07390716 -0.0713861 0.102265 0.186605 0.1840934 -0.03367959 -0.05233061 -0.0001676802 -0.07269897 -0.02841924 -0.09194785 0.05576586 0.05961361 0.02463235 -0.04910587 -0.06497756 -0.1258146 -0.0605748 -0.05815084 -0.01081772 -0.082816 0.08746617 0.120279 0.1241127 -0.02624175 0.002784436 -0.08243666 -0.02885636 0.1770095 -0.009191789 -0.1136001 -0.005073033 0.1966223 0.003978196 -0.04807784 0.004540072 0.07787883 0.07233298 -0.08316731 -0.04326589 -0.0285389 -0.08199117 0.1706697 0.1980691 0.1372269 -0.06200987 -0.03624042 -0.03182905 -0.1313523 -0.06751073 -0.04149151 -0.02586255 -8.921862e-05 -0.02170764 -0.05425201 -0.06879532 -0.1039087 -0.07074088 -0.09865878 -0.008256069 -0.08172963 0.04957288 0.107707 0.07942906 -0.01957626 0.02821114 -0.03383703 -0.009364747 0.1257207 -0.0723523 -0.1110622 -0.0004627274 0.1891806 0.01038032 -0.008477042 0.01672105 0.103715 0.1482308 0.03133979 -0.0295015 -0.01788251 -0.07018479 0.2057983 0.1411323 0.0903236 -0.07527872 -0.02521961 0.005876913 -0.1631028 -0.07060975 -0.06596676 -0.04961663 0.02637164 0.02672612 -0.0007582264 -0.02654133 -0.1498443 -0.108694 -0.07699399 0.032829 -0.06732161 0.02254469 0.03128798 0.07480036 0.0007809018 0.01989633 0.0004431464 -0.07781354 0.05934773 -0.10252 -0.0926832 0.06733296 0.1362695 -0.02162704 0.02894239 0.04656786 0.06038718 0.1409408 8.604926e-05 -0.06845119 -0.04772927 -0.02933307 0.1371493 0.0683195 9.997348e-05 -0.1170585 0.04067905 0.1256299 -0.1020227 -0.07112473 -0.02432552 0.01632913 0.05676852 0.04656134 0.08191878 -0.001115176 -0.07775667 -0.0159331 -0.02924019 0.004098388 -0.02377935 0.04581096 0.02242224 0.1361136 -0.02516646 -0.07038585 -0.07521788 -0.01703423 0.03741426 -0.09338245 -0.06899472 0.08316199 0.1357379 -0.02179942 0.04252454 0.0536745 0.1310289 0.1540062 0.006010517 -0.0908954 -0.05396123 -0.01326013 0.11821 -0.09360728 0.01716899 -0.1404457 0.02425982 0.1478335 -0.03562863 -0.02411172 0.00358386 0.05739693 0.08573914 -0.01574642 0.0384614 -0.03352747 0.03452805 0.06897935 -0.0679468 0.01745263 0.02682887 0.08690224 0.003166274 0.08325089 -0.04787586 -0.06305348 -0.1026304 -0.0720752 -0.07679385 -0.07265424 -0.08254172 0.03930136 0.03357537 -0.08197173 0.01035018 0.03779716 -0.05900016 0.1251771 -0.04268682 -0.1532568 -0.1294488 0.01161882 0.04915459 -0.1288893 0.02716924 -0.1435472 0.06417492 0.1555349 0.02282592 0.0725086 0.08628984 0.1240297 0.1293058 -0.01387431 0.05926932 0.03524828 0.02201706 0.02943875 -0.1339979 0.01127817 0.02064826 0.1089091 -0.02737611 0.02709863 -0.09952759 0.001859555 -0.09118187 -0.001345792 -0.09078451 -0.1060069 -0.03696635 0.03031162 -0.01467427 -0.08602168 0.04615986 -0.0278997 -0.005195966 0.04574384 -0.07009968 -0.1584069 -0.1523089 -0.01005781 0.03897774 -0.09115986 -0.02126161 -0.1916146 0.05767049 0.1522373 0.008940941 0.08571966 0.0653441 0.169274 0.1634355 -0.01638088 0.1169163 0.07718412 0.03879289 0.1038806 -0.1193723 -0.04215557 0.06793652 0.05854511 0.0442244 0.08355909 -0.05605569 0.01672987 -0.05176752 0.007272172 -0.04190781 -0.08080218 -0.02128457 0.05239651 -0.08931597 -0.05751048 0.036617 -0.04326885 -0.02579946 0.05561253 -0.06609347 -0.1107114 -0.1153275 -0.04385478 0.04451278 -0.172479 -0.03670571 -0.1123382 0.04780867 0.1434628 -0.006678762 0.07569323 0.1092154 0.2096598 0.1468827 0.06086967 0.1172232 0.1033544 0.06655218 0.09676021 -0.1479347 -0.01511015 0.04186004 0.0867731 0.009499555 0.05604821 0.009006644 0.04923699 -0.02142222 -0.01473679 -0.08550064 0.01579659 -0.05506795 0.02351342 -0.1597995 -0.08366713 0.07388481 -0.09756222 -0.1145507 -0.05084249 -0.04801216 -0.2038219 -0.1433196 0.05794439 0.08057532 -0.1427964 -0.02817574 -0.07770682 -0.01001445 0.06424882 -0.04684063 0.04866972 0.0735997 0.2561827 0.1836869 0.06756053 0.0446404 0.07366113 0.02738905 0.1449322 -0.131302 0.02646738 0.04361511 0.08336501 0.03246395 0.1363012 -0.0579212 0.05191981 0.01053692 0.007258415 -0.01475671 0.06142456 -0.02283208 0.04124622 -0.06324255 0.009454925 0.02211129 -0.1235942 -0.136636 -0.08120862 -0.02772726 -0.183902 -0.2082283 0.06594395 0.2164948 -0.1486464 -0.08214597 -0.02341971 -0.09730342 -0.00744655 0.05014639 0.03345598 0.07155216 0.2429919 0.1218352 0.1023852 0.02679399 0.08070978 -0.01728521 0.0547132 -0.02804871 0.04871885 0.04865709 0.01352047 -0.01795016 0.1176283 -0.05633949 0.01911565 0.0245776 -0.02316789 -0.05023035 0.05863215 -0.001203182 -0.01186763 -0.03158364 -0.02059982 0.05802037 -0.1159565 -0.1761987 -0.06991252 -0.0085978 -0.1738357 -0.2606653 0.06336047 0.1574159 -0.2182345 -0.1605731 -0.02433621 -0.1729041 -0.05668016 0.0843302 -0.006256403 0.05339422 0.1987256 0.09112622 0.0709794 0.07954463 0.02176302 -0.0764001 0.01891638 -0.01804793 0.02229316 -0.003878556 0.0438224 0.01992011 0.07137353 -0.1774154 -0.008210001 -0.01778049 -0.04327659 -0.07015343 0.03659303 0.00293576 -0.0272016 0.003259067 -0.03516228 0.002110538 -0.1657121 -0.1462912 -0.1091797 0.03316421 -0.1955842 -0.3203335 0.04238886 0.195556 -0.2476884 -0.245574 -0.03009433 -0.2658098 -0.0432522 0.0658024 0.009718571 0.07925773 0.1883963 0.1672354 0.1243817 0.04006387 0.01243333 -0.03813449 0.00229201 0.004546847 -0.03133783 -0.04310235 0.03437601 -0.0007705248 -0.001116282 -0.201837 0.006502659 -0.05179092 -0.03129929 -0.001429564 0.07746928 0.04573532 0.02140905 -0.001108299 -0.09422691 -0.06115401 -0.1797328 -0.1281775 -0.1126902 0.05463566 -0.212281 -0.3353986 0.09421236 0.2063839 -0.3886123 -0.4819893 -0.08427106 -0.2741991 -0.1098731 0.03162194 0.03068035 0.08575817 0.16055 0.2318355 0.08343469 0.01810804 0.07720441 -0.002235151 -0.02365726 -0.04212317 -0.04265362 -0.06141058 -0.0004526423 -0.04313717 -0.02566615 -0.2337059 -0.08376978 -0.2325425 -0.233802 -0.09817641 -0.1038213 -0.0924587 -0.02692399 -0.08028252 -0.1597658 -0.1016263 -0.2383884 -0.1356836 -0.02215278 0.122511 -0.1041104 -0.2695005 
